svm_type c_svc
kernel_type rbf
gamma 0.00273224
nr_class 2
total_sv 527
rho -0.890077
label 1 2
nr_sv 260 267
SV
1 1:0.635978 2:0.658207 3:0.510959 4:0.628458 5:0.385622 6:0.320106 7:0.840905 8:0.384615 9:0.777778 10:0.474206 11:0.25 12:0.812698 13:0.416657 14:0.101449 16:0.146825 18:0.395062 19:0.110229 20:0.490119 21:0.266799 22:0.516667 24:0.352381 25:0.24004 26:0.24004 27:0.252834 28:0.755102 29:0.392857 30:0.583267 32:0.314286 33:0.189641 35:0.44246 36:0.25 38:0.152174 39:0.355556 40:0.888446 41:0.4 42:0.161811 44:0.853539 45:0.440239 46:0.191154 47:0.352191 49:0.0732545 50:0.069626 51:0.187251 52:0.850996 54:0.685828 58:0.142857 59:0.938154 60:0.566911 62:0.884462 65:0.25 66:0.549801 67:0.158762 68:0.360159 71:0.220238 72:0.197619 73:0.531873 76:0.305445 77:0.857201 80:0.310757 82:0.293493 83:0.296149 84:0.666146 85:0.305445 92:0.23506 93:0.450199 94:0.181746 95:0.395219 98:0.318725 99:0.312085 102:0.251427 104:0.160027 106:0.61089 111:0.294821 112:0.293493 125:0.0881423 126:0.222112 127:0.528287 130:0.239087 131:0.705874 136:0.573705 138:0.535857 143:0.215139 145:0.626826 146:0.318725 152:0.442231 155:0.220238 158:0.440239 159:0.108812 164:0.17619 166:0.671958 173:0.17619 185:0.236056 189:0.658699 190:0.184127 209:0.257866 214:0.442231 217:0.34927 227:0.484064 229:0.25 231:0.130952 234:0.444223 235:0.177689 237:0.308101 244:0.304117 252:0.333333 263:0.193878 267:0.444223 285:0.444223 288:0.238095 293:0.366208 310:0.151394 331:0.23506 339:0.397727 341:0.342733 350:0.0983245 358:0.337798 366:0.229084 
1 1:0.323077 3:0.374342 5:0.430502 6:0.547158 7:0.469428 10:0.463178 13:0.748166 14:0.198198 15:0.289575 20:0.119691 21:0.173745 23:0.178295 24:0.172093 25:0.351654 26:0.468872 28:0.614618 29:0.127907 34:0.233527 36:0.244186 38:0.0743243 39:0.347287 42:0.263462 44:0.787929 46:0.220058 49:0.0681426 50:0.204039 54:0.535853 55:0.175194 56:0.215116 59:0.305474 60:0.599926 63:0.063155 67:0.0775418 77:0.771846 79:0.230545 82:0.573281 84:0.842085 88:0.218872 91:0.125047 96:0.317769 98:0.622568 101:0.233527 102:0.147362 103:0.233463 104:0.781453 106:0.298314 108:0.214981 114:0.125692 118:0.344186 121:0.293126 125:0.258301 130:0.233527 131:0.901799 135:0.429961 156:0.325551 159:0.212582 175:0.22093 177:0.0956072 179:0.429961 181:0.307494 190:0.539535 195:0.0842602 201:0.297158 204:0.223735 209:0.215907 216:0.315245 222:0.291829 226:0.182101 230:0.286641 231:0.255814 233:0.449416 235:0.173541 236:0.073787 243:0.320413 246:0.429961 259:0.286641 263:0.0631229 265:0.22179 276:0.10749 280:0.233463 281:0.433852 287:0.147287 288:0.232558 291:0.429961 293:0.418007 295:0.863813 299:0.176654 302:0.298314 317:0.0830103 325:0.431907 327:0.344186 336:0.228599 339:0.166506 341:0.394963 364:0.322957 366:0.447471 
1 1:0.61806 2:0.415537 3:0.37634 4:0.385735 5:0.4869 6:0.353801 7:0.636789 8:0.255061 9:0.245614 10:0.209649 11:0.276316 12:0.112281 13:0.540579 14:0.336245 15:0.764192 16:0.486842 17:0.434211 18:0.436647 19:0.365497 20:0.270742 21:0.29476 22:0.190351 23:0.605263 25:0.132709 27:0.139724 28:0.417293 29:0.144737 30:0.214978 31:0.468045 33:0.419383 34:0.132127 36:0.552632 37:0.168135 38:0.0840611 40:0.32746 42:0.0893478 43:0.253304 44:0.866528 46:0.138751 48:0.168869 49:0.12355 50:0.076923 53:0.157961 54:0.151668 55:0.396491 56:0.243421 57:0.194737 58:0.157961 59:0.552787 60:0.469744 61:0.245614 63:0.0714285 65:0.552863 66:0.405286 67:0.0877001 70:0.358297 72:0.218421 74:0.253304 76:0.337739 77:0.810383 78:0.231718 82:0.649046 84:0.686759 85:0.337739 86:0.493392 88:0.247797 89:0.337739 90:0.579295 91:0.0353571 94:0.200877 96:0.359765 97:0.33627 101:0.264254 102:0.0555555 104:0.176946 106:0.337739 107:0.248899 109:0.488987 112:0.649046 116:0.486784 118:0.584211 119:0.35536 124:0.361233 126:0.491189 127:0.194714 131:0.48108 141:0.275219 144:0.121711 145:0.346549 148:0.275219 149:0.330396 150:0.973568 155:0.486842 159:0.180324 163:0.326023 167:0.389474 168:0.486784 174:0.508811 175:1 177:0.108187 179:0.486784 181:0.173977 183:0.982379 184:0.324523 188:0.660793 190:0.203509 192:0.751836 196:0.491189 197:0.207018 205:0.491189 209:0.162795 215:1 217:0.386197 222:0.330396 250:0.486784 263:0.0714286 268:0.486784 271:1 272:0.488987 273:0.334802 286:0.259912 287:0.166667 288:0.131579 289:0.548458 293:0.419612 295:0.977974 299:0.2 305:0.20793 310:0.167401 317:0.0469664 325:0.977974 326:0.346549 339:0.251092 341:0.376807 355:0.170322 358:0.124452 359:0.265419 
0.3098680162479521 1:0.717949 2:0.531015 3:0.336648 4:0.86756 5:0.311105 6:0.180867 7:0.623818 8:0.26078 9:0.627803 10:0.107175 11:0.376682 12:0.459193 13:0.515301 14:0.802083 15:0.334821 16:0.331839 17:0.147982 18:0.334828 19:0.124564 20:0.553571 21:0.301339 22:0.194619 23:0.206278 26:0.271396 27:0.428571 28:0.284433 29:0.147982 30:0.21982 32:0.591928 33:0.214414 34:0.13509 35:0.5 36:0.282511 37:0.343844 38:0.171875 39:0.401794 40:0.334835 41:0.452018 42:0.274 43:0.259009 44:0.832135 45:0.331832 46:0.123092 47:0.597297 49:0.0462352 50:0.0786402 51:0.423423 52:0.240541 53:0.323037 55:0.405381 56:0.248879 57:0.995516 59:0.777048 60:0.426871 61:0.251121 62:0.333333 63:0.0365115 65:0.282658 67:0.179315 70:0.366366 71:0.995516 72:0.446637 77:0.716423 78:0.236937 81:0.215315 84:0.640328 88:0.253378 90:0.296171 91:0.0722926 92:0.797297 93:0.509009 94:0.205381 95:0.223423 97:0.343844 98:0.36036 101:0.270179 102:0.113591 106:0.345345 109:0.5 110:0.336336 111:0.666667 112:0.331832 114:0.14542 115:0.66967 116:0.497748 117:0.274775 118:0.398206 123:0.391892 124:0.369369 125:0.298661 126:0.502252 127:0.398198 131:0.471731 134:0.167414 137:0.354354 138:0.403904 140:0.176383 155:0.248879 158:0.497748 159:0.184349 161:0.363363 162:0.218834 166:0.759342 167:0.199103 168:0.497748 172:1 173:0.199103 177:0.110613 183:0.502252 184:0.331832 185:0.266892 194:0.333333 195:0.0487424 198:0.272523 201:0.343797 202:0.142217 203:0.259009 209:0.166429 218:0.248874 222:0.337838 224:0.376682 225:0.502252 230:0.331832 231:0.443946 239:0.663664 245:0.497748 246:0.497748 248:0.502252 249:0.52027 262:0.5 263:0.14606 266:0.211712 268:0.497748 283:0.497748 288:0.134529 293:0.420243 298:0.366366 301:0.222523 302:0.345345 310:0.171171 313:0.337838 317:0.0480194 326:0.354354 327:0.199103 339:0.0641742 341:0.406216 350:0.111111 351:0.333333 355:0.174141 358:0.254484 362:0.527027 
1 1:0.553846 2:0.487489 3:0.309054 4:0.579235 5:0.114242 6:0.165981 7:0.672527 8:0.239316 9:0.460905 11:0.259259 12:0.316049 13:0.585071 14:0.736339 15:0.204918 16:0.304527 17:0.407407 18:0.204847 19:0.114312 20:0.508197 21:0.184426 22:0.178601 23:0.567901 24:0.365432 27:0.131099 30:0.403306 31:0.292769 32:0.325926 33:0.196694 34:0.123971 35:0.458848 36:0.259259 37:0.157713 38:0.157787 39:0.184362 41:0.207407 42:0.251633 43:0.475207 44:0.831465 45:0.304408 46:0.108392 47:0.182645 48:0.158402 49:0.362078 50:0.216583 51:0.194215 52:0.220661 53:0.29634 55:0.186008 57:0.182716 59:0.648505 60:0.391881 61:0.230453 62:0.61157 63:0.0670375 66:0.380165 67:0.329235 69:0.45679 71:0.45679 72:0.819753 74:0.237603 75:0.325069 77:0.831161 78:0.217355 81:0.197521 82:0.304408 84:0.732545 87:0.307163 91:0.066367 94:0.188477 96:0.337466 99:0.647383 102:0.0521402 105:0.134039 109:0.458678 110:0.30854 111:0.305785 114:0.133451 117:0.252066 119:1 122:0.946281 124:0.338843 125:0.365574 131:0.299954 134:0.153635 138:0.185262 139:0.341598 141:0.516461 143:0.22314 149:0.309917 155:0.228395 158:0.913223 159:0.112825 160:0.456612 161:1 162:0.200823 164:0.182716 166:0.696845 167:0.182716 168:0.456612 170:0.913223 172:0.229339 173:0.182716 176:0.456612 179:0.456612 181:0.163237 183:0.460744 184:0.304408 190:0.190947 191:0.469008 194:0.917355 195:0.0447307 209:0.152787 210:0.456612 216:0.334705 218:0.228306 225:0.460744 231:0.271605 234:0.460744 236:0.0391709 237:0.319559 242:0.47314 248:0.460744 250:0.456612 251:0.456612 258:0.261023 263:0.0670194 267:0.460744 274:0.341598 287:0.156379 288:0.246914 293:0.343829 300:0.456612 301:0.204132 310:0.157025 312:0.168038 327:0.365432 331:0.243802 332:0.186639 336:0.242769 339:0.471312 340:0.336088 341:0.386968 350:0.305898 351:0.305785 352:0.493802 358:0.11677 364:0.171488 366:0.237603 
1 1:0.590095 2:0.272815 3:0.197665 4:0.810398 5:0.575401 6:0.185868 7:0.668774 9:0.387097 10:0.220276 13:0.661863 14:0.117737 15:0.458715 16:0.852535 18:0.344086 19:0.640041 20:0.142202 21:0.516055 22:1 23:0.211982 24:0.409217 25:0.278935 27:0.440421 28:0.292298 31:0.327847 32:0.364977 34:0.138825 35:0.770737 38:0.0883028 39:0.206452 42:0.0625571 44:0.769819 45:0.170525 46:0.271925 49:0.0230175 50:0.0808046 55:0.41659 56:0.25576 58:0.332011 59:0.72585 60:0.493447 61:0.516129 63:0.112549 64:0.19213 65:0.290509 66:0.212963 67:0.184251 69:0.25576 74:0.266204 77:0.81586 78:0.487037 79:0.274306 81:0.442593 83:0.344136 84:0.762197 85:0.354938 88:0.260417 90:0.608796 91:0.0742823 92:0.273148 93:0.261574 94:0.21106 102:0.175076 103:0.277778 107:0.523148 110:0.345679 111:0.342593 112:0.682099 114:0.14944 117:0.282407 118:0.204608 122:0.530093 125:0.102294 126:0.258102 127:0.20463 129:0.513889 131:0.443116 134:0.172043 136:1 139:0.382716 142:0.688272 143:1 144:0.25576 146:0.37037 147:0.12788 148:0.289171 153:0.516204 155:0.25576 158:0.511574 159:0.189423 163:0.34255 164:0.204608 165:0.511574 168:0.511574 169:0.347222 171:1 176:0.511574 178:0.348765 181:0.182796 182:0.412903 186:0.118792 188:0.347222 192:0.395062 205:0.516204 209:0.427523 212:0.525463 214:0.513889 216:0.187404 218:0.255787 219:0.516204 222:0.347222 223:0.5625 231:0.456221 233:0.534722 236:0.0877283 237:0.358025 246:0.511574 255:0.105093 256:0.256944 259:0.341049 263:0.0750494 286:0.546296 287:0.35023 288:0.138249 292:0.511574 293:0.343634 301:0.228704 310:0.175926 319:0.232258 322:0.578704 327:0.204608 330:0.511574 334:0.534722 339:0.131881 341:0.317639 343:0.269676 354:0.368827 355:0.178955 358:0.392281 
1 1:0.483343 2:0.282089 3:0.29806 4:0.488801 5:0.4958 6:0.320106 7:0.768827 8:0.153846 9:0.444444 10:0.474206 12:0.304762 13:0.526223 14:0.304348 15:0.296443 16:0.146825 18:0.296296 19:0.661376 20:0.245059 21:0.0889328 22:0.516667 24:0.17619 25:0.24004 26:0.24004 28:0.251701 29:0.261905 32:0.314286 33:0.379283 42:0.0809055 44:0.808708 45:0.293493 46:0.120256 47:0.352191 49:0.319382 50:0.069626 52:0.212749 54:0.137166 55:0.35873 56:0.220238 57:0.352381 58:0.142857 59:0.750523 60:0.661397 61:0.222222 62:0.294821 64:0.496016 66:0.183267 67:0.158762 69:0.220238 71:0.440476 72:0.197619 76:0.305445 77:0.779571 78:0.209562 81:0.190438 82:0.293493 84:0.705816 85:0.61089 86:0.223108 90:0.785857 91:0.160015 95:0.395219 106:0.305445 108:0.22012 113:0.442231 115:0.592297 117:0.243028 118:0.352381 120:0.293493 126:0.222112 127:0.176096 130:0.239087 131:0.524461 133:0.306773 136:0.573705 138:0.357238 143:0.215139 148:0.249008 152:0.442231 155:0.220238 159:0.163218 160:0.880478 172:0.221116 184:0.293493 188:0.298805 192:0.339973 194:0.294821 195:0.0431332 196:0.444223 199:0.306773 201:0.304233 203:0.229084 204:0.458167 209:0.18419 211:0.440239 216:0.161376 221:0.138322 222:0.298805 224:0.666667 227:0.484064 231:0.261905 239:0.293493 242:0.456175 247:0.232072 251:0.440239 257:0.221116 258:0.12585 259:0.293493 270:0.22012 275:0.297477 287:0.150794 288:0.357143 289:0.496016 293:0.213694 316:0.442231 318:0.294821 331:0.47012 336:0.234064 339:0.340909 341:0.326575 344:0.484064 350:0.0983245 355:0.154101 356:0.318725 
1 1:0.228727 2:0.105731 4:0.392593 5:0.0619444 7:0.32403 12:0.228571 13:0.812876 14:0.114074 15:0.111111 16:0.165179 18:0.333333 20:0.275556 21:0.4 28:0.141582 32:0.117857 38:0.256667 41:0.45 42:0.303097 44:0.739423 46:0.241817 49:0.183685 50:0.156581 55:0.201786 57:0.198214 59:0.421961 60:0.159365 62:0.331839 63:0.181746 67:0.267778 69:0.247768 71:0.247768 77:0.751332 81:0.21435 83:0.333333 84:0.868308 91:0.0359856 94:0.204464 95:0.222422 101:0.537946 102:0.16963 105:0.145408 112:0.330344 114:0.14477 115:0.333333 117:0.273543 125:0.198222 126:0.25 131:0.347223 134:0.166667 140:0.175595 142:0.333333 144:0.247768 147:0.371652 157:0.402093 159:0.428235 162:0.217857 163:0.331845 166:0.755952 167:0.396429 170:0.495516 172:0.248879 173:0.198214 181:0.177083 182:0.6 185:0.265695 186:0.115079 189:0.741405 190:0.414286 193:0.330344 197:0.210714 207:0.513453 209:0.207111 225:1 226:0.209865 230:0.330344 231:0.147321 232:0.165172 239:0.330344 240:0.269058 242:0.513453 246:0.495516 247:0.261211 261:0.199103 263:0.0727041 277:0.538117 288:0.133929 293:0.546084 302:0.343797 305:0.211659 307:0.2 308:0.207175 311:0.348281 312:0.182292 317:0.0478051 320:0.378176 337:0.495516 339:0.255556 340:0.364723 341:0.264888 348:0.991031 349:0.255605 350:0.22123 355:0.173363 358:0.126674 366:0.515695 
1 1:0.280936 2:0.207768 3:0.141127 4:0.154294 5:0.121725 6:0.176901 7:0.397993 8:0.17004 9:0.122807 10:0.104825 11:0.0921053 12:0.224561 13:0.61497 14:0.224163 15:0.21834 20:0.406114 21:0.196506 22:0.190351 25:0.132709 27:0.139724 30:0.214978 32:0.115789 33:0.209692 34:0.132127 35:0.244518 36:0.276316 38:0.252183 41:0.221053 42:0.268043 44:0.710674 45:0.162261 46:0.177899 49:0.395361 50:0.230769 51:0.207048 52:0.235242 53:0.157961 55:0.198246 56:0.243421 57:0.194737 59:0.345492 60:0.156581 63:0.107143 67:0.350801 71:0.243421 76:0.337739 77:0.662993 82:0.649046 84:0.707091 91:0.2475 93:0.248899 94:0.401754 95:0.218502 101:0.264254 102:0.222222 109:0.488987 110:0.328928 114:0.142231 120:0.324523 125:0.29214 128:0.365639 130:0.264254 131:0.220635 134:0.163743 143:0.237885 144:0.121711 146:0.352423 147:0.121711 155:0.243421 159:0.180324 162:0.214035 163:0.326023 166:0.74269 167:0.194737 177:0.216374 181:0.173977 186:0.11306 189:0.36417 190:0.203509 191:0.5 194:0.651982 195:0.0476735 197:0.207018 201:0.336257 202:0.278195 207:0.504405 209:0.284891 216:0.178363 221:0.458647 225:0.491189 234:0.491189 243:0.362573 247:0.256608 261:0.195595 263:0.0714286 280:0.264317 287:0.333333 288:0.263158 291:0.486784 293:0.327337 294:0.526432 297:0.194714 301:0.217621 306:0.345081 309:0.546256 310:0.167401 317:0.0469664 318:0.325991 319:0.221053 327:0.194737 335:0.493392 336:0.258811 339:0.251092 341:0.43162 348:0.973568 357:0.324523 358:0.248904 359:0.265419 362:0.515419 364:0.182819 
1 1:0.373333 2:0.371711 3:0.38474 4:0.157738 5:0.186663 6:0.0904335 7:0.678063 8:0.434633 9:0.125561 10:0.21435 11:0.282511 12:0.344395 13:0.471629 14:0.229167 17:0.147982 20:0.415179 21:0.100447 23:0.206278 24:0.597309 28:0.284433 29:0.147982 32:0.236771 33:0.214414 34:0.13509 35:0.25 36:0.565022 37:0.343844 38:0.429688 40:0.66967 41:0.226009 42:0.365333 44:0.72916 45:0.165916 46:0.243145 47:0.199099 48:0.172673 49:0.351871 50:0.23592 51:0.211712 52:0.481081 53:0.161519 54:0.310167 57:0.199103 59:0.423844 60:0.320153 63:0.0365115 67:0.0896578 68:0.203604 71:0.248879 73:0.601351 77:0.710609 79:0.266892 80:0.351351 81:0.215315 82:0.331832 84:0.622595 91:0.180732 95:0.446847 102:0.227183 104:0.180931 106:0.345345 110:0.336336 121:0.339339 122:0.515766 123:0.391892 127:0.199099 128:0.747748 130:0.270179 131:0.348854 140:0.176383 144:0.124439 146:0.36036 150:0.497748 155:0.248879 159:0.122899 166:0.379671 172:0.25 177:0.110613 181:0.177877 183:0.502252 185:0.533784 194:0.333333 195:0.0974849 202:0.142217 209:0.249643 212:0.255631 214:1 216:0.364723 221:0.31262 231:0.443946 233:0.52027 236:0.0426839 237:0.348348 239:0.331832 251:0.497748 255:0.102252 256:0.25 258:0.142217 267:0.502252 270:0.248874 276:0.124437 280:0.27027 283:0.497748 285:0.502252 286:0.265766 287:0.340807 288:0.134529 293:0.413812 298:0.366366 302:0.345345 312:0.549327 331:0.265766 336:0.529279 339:0.320871 341:0.226398 350:0.111111 355:0.348281 358:0.381726 
0.5304519681068889 1:0.665566 2:0.615245 3:0.650078 4:0.380747 5:0.360453 6:0.52381 7:0.916694 8:0.755245 9:0.242424 10:0.31039 11:0.0909091 12:0.110823 13:0.150552 14:0.221264 15:0.431034 16:0.160173 17:1 18:0.215488 19:0.601251 20:0.133621 21:0.387931 22:0.563636 25:0.130978 27:0.13791 29:1 30:0.212174 32:0.114286 33:0.827826 35:0.241342 36:0.272727 38:0.331897 39:0.387879 40:0.323188 41:0.218182 42:0.235193 43:1 44:0.80846 46:0.310127 48:1 49:0.281037 50:0.227785 52:0.232174 55:0.782684 56:0.24026 58:0.467702 59:0.341024 60:0.515189 62:0.321739 63:0.0705049 64:0.541304 66:0.2 67:0.259698 68:0.982609 69:0.24026 71:0.480519 76:0.666667 77:0.70092 78:0.228696 80:0.33913 82:0.96087 84:0.393834 85:0.666667 86:0.243478 90:0.28587 91:0.0697998 92:0.256522 93:0.245652 94:0.198268 98:0.347826 101:0.260823 102:0.219349 105:0.141002 106:1 113:0.965217 114:0.140383 115:0.323188 116:0.480435 117:0.265217 118:0.384416 124:0.356522 125:0.0961206 128:0.36087 131:0.296645 137:0.342029 148:0.271645 150:0.96087 154:0.193913 159:0.296653 162:0.211255 163:0.643579 167:0.384416 169:0.326087 178:0.327536 181:0.171717 186:0.111592 191:0.493478 192:0.371014 193:0.32029 203:0.5 204:0.25 207:0.995652 209:0.200862 210:0.480435 216:0.176046 222:0.652174 231:0.142857 235:0.193913 245:0.480435 246:0.480435 248:0.484783 252:0.363768 263:0.141002 268:0.480435 277:0.521739 278:0.519565 288:0.12987 289:0.541304 293:0.303608 297:0.384348 299:0.197391 308:0.20087 310:0.330435 311:0.337681 312:0.353535 317:0.0463564 318:0.321739 320:0.366667 339:0.185884 341:0.309785 342:0.369565 343:0.253261 347:0.646377 350:0.214526 354:0.346377 355:0.336219 356:0.347826 358:0.491342 
1 1:0.612732 2:0.566416 3:0.279811 4:0.84127 5:0.362013 6:0.175362 7:0.578691 8:0.168562 9:0.730435 10:0.103913 11:0.273913 12:0.77913 13:0.629261 14:0.222222 15:0.324675 16:0.482609 17:0.143478 18:0.108213 19:0.483092 20:0.268398 21:0.292208 23:0.4 27:0.138509 29:0.143478 31:0.309317 32:0.918261 33:0.20786 34:0.130978 35:0.242391 37:0.166667 38:0.166667 39:0.194783 40:0.3246 41:0.21913 42:0.0590517 44:0.905963 45:0.643377 46:0.0982536 47:0.965066 49:0.148154 50:0.076257 51:0.615721 52:0.233188 53:0.156581 55:0.196522 56:0.241304 57:0.386087 58:0.156581 59:0.822001 60:0.310451 61:0.243478 63:0.0708102 64:0.181223 66:0.200873 67:0.0869408 69:0.241304 70:0.355167 74:0.251092 77:0.964578 78:0.459389 81:0.208734 82:0.321689 84:0.742002 89:0.334789 90:0.861354 92:0.257642 95:0.433188 97:0.666667 100:0.371179 101:0.261957 103:0.262009 105:0.141615 110:0.978166 114:0.140994 117:0.799127 118:0.193043 123:0.379913 124:0.358079 125:0.0965367 126:0.24345 130:0.261957 131:0.198701 132:0.208734 135:0.482533 138:0.783115 144:0.120652 145:0.687045 149:0.327511 151:0.274017 153:0.4869 154:0.19476 158:0.482533 159:0.297937 164:0.386087 165:0.482533 167:0.193043 170:0.482533 179:0.482533 182:0.389565 184:0.321689 186:0.112077 188:0.327511 192:0.372635 196:0.4869 209:0.121039 228:0.247817 229:0.274017 243:0.35942 286:0.257642 292:0.482533 293:0.475157 296:0.491266 308:0.201747 310:0.331878 311:0.339156 326:0.343523 331:0.772926 339:0.560065 341:0.377399 350:0.107729 355:0.168841 356:0.349345 358:0.246739 359:0.2631 365:0.321689 
1 1:0.412439 2:0.45749 3:0.230186 4:0.52849 5:0.178686 6:0.0865522 7:0.545335 8:0.249587 9:0.480687 11:0.180258 12:0.329614 13:0.666967 14:0.219373 15:0.213675 16:0.317597 18:0.213639 19:0.119218 20:0.132479 21:0.0961538 22:0.745064 23:0.39485 24:0.190558 26:0.129849 27:0.136726 29:0.141631 30:0.210345 31:0.152667 32:0.453219 33:0.205172 34:0.129292 35:0.23927 36:0.270386 37:0.164511 38:0.16453 41:0.216309 42:0.174894 44:0.857305 45:0.476293 46:0.153744 47:0.381034 49:0.197575 50:0.0752793 51:0.202586 52:0.230172 55:0.387983 56:0.238197 57:0.190558 59:0.473353 60:0.255393 62:0.637931 65:0.270474 66:0.198276 67:0.343305 68:0.194828 70:0.701149 72:0.213734 73:0.287716 74:0.247845 75:0.33908 76:0.33046 77:0.888259 78:0.226724 79:0.255388 80:0.336207 84:0.760768 85:0.33046 91:0.103805 93:0.243534 94:0.196567 97:0.329023 100:0.366379 107:0.243534 109:0.478448 118:0.190558 119:0.347701 125:0.095299 131:0.470423 136:0.310345 138:0.579741 143:0.465517 154:0.192241 158:0.476293 159:0.0588235 165:0.476293 169:0.323276 171:0.465517 173:0.190558 181:0.170243 182:0.192275 186:0.331903 188:0.323276 197:0.202575 203:0.247845 209:0.238974 216:0.174535 221:0.149601 222:0.323276 231:0.283262 244:0.329023 248:0.480603 268:0.476293 282:0.261853 293:0.379173 306:0.337644 308:0.199138 310:0.491379 312:0.17525 315:0.110632 318:0.318966 319:0.432618 331:0.25431 339:0.307158 341:0.502222 343:0.251078 347:0.320402 350:0.106342 358:0.608906 364:0.178879 
1 1:0.0781637 2:0.0963137 4:0.0715249 7:0.442928 12:0.20813 13:0.751336 15:0.101215 20:0.125506 21:0.0910931 31:0.144599 32:0.107317 35:0.226626 36:0.256098 38:0.233806 41:0.204878 42:0.248589 44:0.748054 46:0.414995 49:0.381112 50:0.285269 51:0.383673 55:0.18374 59:0.704692 60:0.241951 63:0.132446 67:0.325236 74:0.234694 77:0.767941 80:0.318367 81:0.195102 84:0.86994 91:0.131122 94:0.186179 102:0.206028 105:0.132404 114:0.131823 125:0.361134 131:0.203186 134:0.151762 140:0.159892 144:0.338415 147:0.112805 149:0.306122 157:0.365986 159:0.167183 165:0.45102 167:0.180488 180:0.132404 181:0.161247 182:0.182114 186:0.314363 188:0.306122 189:0.337415 190:0.188618 194:0.302041 195:0.0441852 198:0.246939 202:0.25784 209:0.565992 216:0.330623 228:0.231633 231:0.134146 236:0.0386932 240:0.244898 245:0.45102 253:0.247959 255:0.0926531 258:0.12892 259:0.30068 261:0.181224 263:0.0662021 265:0.232653 280:0.244898 287:0.154472 288:0.487805 290:0.22551 293:0.447449 301:0.201633 305:0.192653 308:0.377143 309:0.506122 312:0.165989 315:0.209524 324:0.922449 327:0.721951 339:0.523785 340:0.331973 341:0.387477 342:0.346939 350:0.201445 354:0.32517 356:0.326531 358:0.115346 359:0.245918 
1 1:0.466803 2:0.226999 3:0.328938 4:0.20229 5:0.531966 6:0.386335 7:0.649703 9:0.214559 10:0.640996 12:0.294253 13:0.498349 14:0.195929 15:0.0954197 16:0.141762 17:0.126437 18:0.286079 19:0.319285 20:0.828244 21:0.171756 22:0.166284 23:0.176245 24:0.34023 25:0.579327 26:0.579327 28:0.607553 29:0.126437 31:0.136289 35:0.213602 36:0.482759 38:0.514313 41:0.386207 42:0.338593 43:0.221154 44:0.727264 46:0.19978 47:0.17 49:0.446002 50:0.403406 54:0.662088 55:0.17318 56:0.425287 59:0.603951 60:0.456198 63:0.0312159 64:0.159615 65:0.241346 66:0.353846 67:0.536578 74:0.221154 77:0.707094 78:0.202308 80:0.3 84:0.646884 86:0.215385 90:0.505769 91:0.0927111 94:0.175479 95:0.190769 99:0.602564 101:0.230843 102:0.145674 104:0.463462 108:0.2125 114:0.248495 120:0.283333 122:0.440385 124:0.315385 125:0.255343 126:0.214423 128:0.319231 130:0.461686 131:0.575919 134:0.286079 137:0.302564 141:0.240421 142:0.285897 145:0.605128 146:0.307692 149:0.288462 152:0.426923 155:0.425287 156:0.321795 159:0.105074 160:0.425 162:0.186973 164:0.510345 166:0.648787 173:0.34023 177:0.189017 178:0.289744 180:0.124795 181:0.303959 183:0.428846 186:0.0987654 187:0.236538 189:0.317949 190:0.177778 191:0.436538 193:0.283333 194:0.284615 202:0.121511 204:0.221154 209:0.177863 216:0.311622 218:0.2125 220:0.2125 221:0.267105 229:0.241346 231:0.252874 233:0.444231 237:0.297436 240:0.230769 248:0.428846 252:0.321795 253:0.233654 265:0.219231 266:0.180769 275:0.287179 280:0.230769 285:0.857692 287:0.145594 288:0.114943 293:0.351992 294:0.459615 298:0.312821 305:0.181538 306:0.301282 309:0.238462 310:0.146154 312:0.469349 319:0.386207 331:0.226923 339:0.438931 341:0.367303 348:0.85 350:0.189868 352:0.459615 353:0.234615 356:0.307692 358:0.108716 361:0.283333 362:0.45 363:0.332051 365:0.283333 
1 1:0.529178 2:0.308954 3:0.373081 4:0.382395 5:0.422348 6:0.175362 7:0.552387 8:0.252843 9:0.121739 10:0.415652 11:0.273913 12:0.111304 13:0.510585 14:0.222222 15:0.21645 16:0.16087 17:0.143478 18:0.324638 19:0.241546 20:0.536797 21:0.38961 22:0.188696 24:0.386087 28:0.137888 29:0.143478 31:0.154658 32:0.229565 33:0.415721 34:0.392935 35:0.242391 36:0.273913 37:0.5 38:0.166667 39:0.194783 40:0.649199 41:0.21913 42:0.118103 43:0.251092 44:0.786284 45:0.160844 46:0.234089 47:0.193013 49:0.202047 50:0.152514 56:0.241304 57:0.386087 58:0.156581 59:0.411001 60:0.362193 61:0.486957 62:0.323144 63:0.14162 64:0.181223 65:0.274017 67:0.260822 71:0.482609 73:0.291485 77:0.752636 78:0.229694 79:0.258734 82:0.321689 84:0.628513 87:0.3246 88:0.7369 90:0.287118 91:0.0350509 94:0.398261 100:0.371179 102:0.275373 103:0.524017 104:0.1754 105:0.141615 108:0.241266 109:0.484716 110:0.652111 113:0.484716 115:0.649199 116:0.482533 118:0.193043 126:0.4869 128:0.362445 129:0.484716 130:0.261957 131:0.397316 139:0.36099 143:0.235808 144:0.241304 146:0.349345 148:0.272826 155:0.482609 157:0.391557 159:0.119175 164:0.193043 165:0.482533 166:0.368116 167:0.386087 172:0.484716 180:0.141615 182:0.194783 183:0.4869 186:0.112077 197:0.205217 204:0.251092 206:0.203493 209:0.161385 211:0.482533 221:0.151553 223:0.530568 224:0.365217 228:0.247817 231:0.286957 232:0.160844 236:0.0413849 239:0.321689 242:0.25 248:0.4869 250:0.482533 255:0.0991266 262:0.484716 263:0.0708075 267:0.4869 268:0.482533 278:0.521834 293:0.41831 306:0.342067 307:0.19476 308:0.201747 315:0.112082 316:0.484716 317:0.046558 331:0.257642 339:0.311147 341:0.370714 342:0.371179 347:0.3246 353:0.266376 355:0.168841 357:0.321689 361:0.321689 
1 1:0.451357 2:0.263352 3:0.318014 4:0.195572 5:0.360009 6:0.373457 7:0.516026 8:0.0717949 9:0.103704 10:0.177037 11:0.155556 13:0.576781 14:0.284133 15:0.369004 16:0.137037 17:0.366667 18:0.0921811 19:0.205761 20:0.457565 21:0.249077 22:0.160741 23:0.340741 24:0.164444 25:0.223978 26:0.111989 28:0.234921 31:0.131746 32:0.0977778 33:0.176952 34:0.223148 37:0.141884 39:0.497778 41:0.56 42:0.251838 43:0.213755 44:0.766908 46:0.207835 49:0.150531 50:0.0650015 55:0.334815 56:0.205556 57:0.164444 58:0.133298 59:0.291947 60:0.396943 61:0.207407 63:0.0905377 66:0.171004 67:0.370541 69:0.205556 70:0.302354 71:0.205556 74:0.213755 77:0.693122 79:0.22026 82:0.547708 83:0.276332 84:0.674515 87:0.276332 88:0.418216 89:0.285006 90:0.244424 91:0.0298774 96:0.303594 98:0.594796 101:0.446296 102:0.187782 104:0.149318 105:0.120635 112:0.273854 118:0.493333 121:0.560099 122:0.425651 124:0.304833 125:0.164576 126:0.207249 130:0.223148 131:0.437623 134:0.276543 135:0.821561 138:0.166667 141:0.232407 143:0.200743 144:0.205556 147:0.102778 148:0.232407 151:0.466543 152:0.412639 159:0.304754 162:0.180741 164:0.328889 166:0.31358 170:0.410781 172:0.20632 173:0.164444 174:0.429368 175:0.211111 176:0.410781 180:0.120635 185:0.44052 186:0.0954733 190:0.171852 192:0.317224 195:0.0402576 196:0.414498 200:0.16171 208:0.222119 209:0.171956 212:0.210967 222:0.27881 223:0.451673 224:0.311111 225:0.414498 226:0.173978 229:0.233271 231:0.244444 233:0.429368 236:0.0352538 239:0.273854 241:0.466543 246:0.821561 248:0.414498 258:0.11746 262:0.412639 263:0.0603175 264:0.155514 268:0.410781 272:0.412639 277:0.446097 278:0.444238 286:0.219331 287:0.140741 293:0.391487 295:0.825279 302:0.285006 305:0.175465 318:0.275093 319:0.186667 325:0.412639 326:0.292441 336:0.218401 338:0.303594 339:0.106089 341:0.335524 343:0.216543 349:0.423792 350:0.0917695 355:0.287654 366:0.213755 
1 1:0.0269231 7:0.432265 13:0.669858 14:0.107392 20:0.129707 38:0.563807 42:0.399583 44:0.716095 46:0.18687 49:0.71134 50:0.294818 59:0.132414 60:0.20004 63:0.10266 67:0.588215 72:0.209244 77:0.607939 84:0.699825 91:0.338777 94:0.384874 102:0.159693 114:0.136255 125:0.0933054 131:0.191418 134:0.313725 140:0.165266 147:0.116597 159:0.172779 161:0.340366 166:0.355742 177:0.103641 181:0.166667 186:0.10831 190:0.194958 195:0.0913409 197:0.594958 202:0.39976 209:0.116987 218:0.233122 221:0.732293 236:0.0399938 259:0.31083 266:0.198312 267:0.470464 270:0.233122 275:0.315049 288:0.378151 293:0.372722 301:0.208439 303:0.312236 306:0.33052 308:0.194937 309:0.261603 312:0.686275 317:0.044993 327:0.186555 336:0.24789 339:0.300732 340:0.343179 341:0.394108 346:0.319269 350:0.208217 351:0.312236 353:0.257384 355:0.163165 363:0.364276 
1 1:0.606593 2:0.487489 3:0.485656 4:0.217213 5:0.399846 6:0.497942 7:0.747253 8:0.39886 9:0.115226 10:0.49177 11:0.17284 12:0.316049 13:0.286685 14:0.315574 15:0.307377 16:0.152263 17:0.271605 18:0.204847 19:0.342936 20:0.762295 21:0.276639 22:0.535802 25:0.248967 26:0.124483 28:0.261023 29:0.407407 31:0.146384 32:0.108642 33:0.590083 34:0.247942 35:0.229424 36:0.259259 37:0.315427 38:0.157787 39:0.184362 40:0.307163 41:0.622222 42:0.251633 43:0.475207 44:0.706051 46:0.292146 49:0.26001 50:0.288777 52:0.441322 53:0.14817 54:0.284534 55:0.186008 57:0.182716 59:0.453954 60:0.538837 62:0.305785 63:0.201112 64:0.342975 65:0.259298 66:0.190083 67:0.411544 68:0.186777 76:0.316804 77:0.720599 78:0.217355 80:0.322314 82:0.913223 83:0.307163 84:0.484409 85:0.316804 86:0.231405 88:0.232438 91:0.066367 95:0.204959 96:0.674931 98:0.330579 101:0.247942 102:0.10428 104:0.165978 105:0.134039 106:0.633609 109:0.917355 110:0.30854 114:0.133451 118:0.182716 125:0.0913934 131:0.450415 134:0.460905 136:0.297521 137:0.325069 141:0.516461 143:0.22314 144:0.342593 145:0.325069 147:0.114198 154:0.184298 155:0.228395 156:0.34573 158:0.456612 160:0.456612 164:0.365432 165:0.456612 166:0.696845 167:0.182716 169:0.619835 171:0.446281 175:0.234568 177:0.203018 181:0.326475 182:0.184362 186:0.106081 189:0.341598 190:0.190947 191:0.469008 194:0.305785 195:0.0447307 201:0.315501 202:0.130511 204:0.475207 209:0.22918 212:0.234504 216:0.167353 222:0.309917 224:0.345679 225:0.460744 231:0.135802 235:0.184298 236:0.0783417 240:0.247934 241:0.518595 243:0.340192 251:0.456612 253:0.251033 254:0.232438 258:0.130511 259:0.304408 262:0.458678 263:0.0670194 274:0.683196 281:0.460744 286:0.487603 287:0.156379 288:0.123457 293:0.423713 296:0.464876 298:0.336088 311:0.320937 312:0.168038 317:0.0440672 319:0.622222 331:0.243802 333:0.456612 339:0.29457 340:0.336088 341:0.235711 343:0.240702 347:0.307163 349:0.235537 350:0.203932 354:0.658402 355:0.159808 358:0.11677 360:0.502066 362:0.483471 365:0.304408 
1 1:0.478632 2:0.245759 3:0.489669 4:0.219008 5:0.172779 6:0.251037 7:0.577609 8:0.321736 10:0.0991701 11:0.261411 13:0.396994 14:0.318182 15:0.206611 16:0.153527 17:0.273859 19:0.230521 20:0.256198 21:0.650827 23:0.381743 24:0.736929 29:0.136929 31:0.147599 32:0.219087 33:0.198333 34:0.125 35:0.693983 36:0.261411 37:0.477083 38:0.397727 39:0.743568 40:0.309722 42:0.366461 43:0.239583 44:0.617733 46:0.220913 48:0.159722 49:0.340551 50:0.218372 53:0.149405 58:0.149405 59:0.0653865 60:0.29634 61:0.232365 63:0.0675915 64:0.172917 67:0.331956 69:0.23029 70:0.338889 72:0.206639 73:0.55625 77:0.661656 78:0.219167 79:0.49375 82:0.306944 84:0.535352 91:0.167289 94:0.190041 96:0.340278 98:0.333333 99:0.652778 101:0.25 102:0.210285 103:0.25 106:0.319444 110:0.622222 111:0.616667 114:0.134558 118:0.184232 125:0.276446 128:0.345833 129:0.4625 131:0.321548 135:0.460417 139:0.344444 140:0.163209 141:0.260373 144:0.115145 146:1 148:0.520747 155:0.23029 159:0.113758 160:0.460417 161:0.336111 162:0.20249 164:0.184232 165:0.460417 173:0.184232 174:0.48125 176:0.460417 179:0.460417 182:0.371784 183:0.464583 185:0.246875 195:0.0902039 202:0.131595 209:0.115537 210:0.460417 212:0.236458 216:0.337483 221:0.144635 226:0.39 231:0.410788 233:0.48125 236:0.0789919 243:0.343015 250:0.460417 254:0.234375 255:0.0945833 256:0.23125 258:0.131595 261:0.185 263:0.202727 277:0.5 278:0.497917 288:0.124481 289:0.51875 293:0.379816 299:0.189167 302:0.638889 310:0.158333 312:0.508299 319:0.418257 333:0.460417 336:0.244792 339:0.118802 340:0.338889 341:0.347103 346:0.315278 350:0.102812 351:0.308333 355:0.483402 358:0.470954 364:0.172917 366:0.239583 
1 1:0.599805 2:0.504014 3:0.410824 4:0.374294 5:0.472458 6:0.257447 7:0.64373 8:0.329951 9:0.119149 10:0.305106 11:0.268085 12:0.217872 13:0.417886 14:0.435028 15:0.105932 16:0.47234 17:0.561702 18:0.31773 19:0.472813 20:0.919492 22:0.184681 23:0.391489 24:0.377872 25:0.128739 26:0.128739 27:0.271125 28:0.404863 29:0.140426 30:0.208547 31:0.151368 33:0.203419 36:0.804255 37:0.163105 38:0.163136 40:0.317664 41:0.857872 42:0.144515 43:0.245726 44:0.733842 46:0.0949785 48:0.163818 49:0.405682 50:0.223924 52:0.45641 53:0.153236 54:0.147131 55:0.19234 56:0.23617 57:0.188936 58:0.153236 59:0.469342 60:0.405166 62:0.316239 63:0.06931 64:0.17735 65:0.536325 67:0.0850989 68:0.193162 70:0.347578 71:0.23617 72:0.42383 73:0.285256 74:0.245726 77:0.76651 78:0.224786 79:0.253205 80:1 82:0.314815 84:0.582018 85:0.327635 86:0.478632 90:0.561966 91:0.137233 92:0.252137 93:0.241453 94:0.194894 99:0.334758 100:0.363248 102:0.161723 104:0.343305 105:0.138602 106:0.327635 107:0.241453 108:0.236111 112:0.62963 115:0.317664 119:0.344729 120:0.314815 123:0.371795 125:0.0944916 128:0.354701 130:0.512766 131:0.505172 141:0.267021 145:0.336182 150:0.472222 151:0.536325 152:0.948718 159:0.2333 164:0.566809 166:0.360284 168:0.472222 169:0.320513 171:0.461538 172:0.237179 174:0.49359 177:0.104965 179:0.472222 181:0.168794 190:0.197447 195:0.13876 206:0.398291 209:0.0789831 216:0.17305 217:0.749288 228:0.242521 229:0.268162 230:0.314815 231:0.140426 241:0.804487 242:0.244658 246:0.472222 258:0.134954 280:0.25641 285:0.476496 287:0.161702 288:0.12766 293:0.474178 310:0.324786 317:0.0455674 327:0.188936 331:0.252137 336:0.502137 338:0.349003 339:0.60911 341:0.274645 347:0.317664 351:0.316239 358:0.241489 361:0.314815 365:0.314815 366:0.491453 
1 1:0.550984 2:0.555396 3:0.335338 4:0.481193 5:0.379621 6:0.157552 7:0.63864 8:0.378606 9:0.21875 10:0.186719 11:0.246094 12:0.4 13:0.393939 14:0.0998703 16:0.578125 17:0.257813 20:0.844358 21:0.175097 22:0.508594 24:0.346875 25:0.236275 26:0.236275 27:0.124442 28:0.247768 29:0.128906 30:0.191373 32:0.20625 34:0.470703 35:0.217773 37:0.299346 38:0.299611 39:0.175 41:0.984375 42:0.185853 43:0.22549 44:0.739234 45:0.144444 46:0.204756 49:0.312132 50:0.274169 51:0.184314 52:0.209412 53:0.421849 56:0.216797 57:0.173438 59:0.677272 60:0.279044 63:0.127293 67:0.468872 69:0.867188 71:0.216797 73:0.523529 75:0.616993 76:0.601307 77:0.726289 81:0.187451 83:0.291503 84:0.596151 88:0.220588 93:0.221569 94:0.357813 95:0.583529 99:0.30719 100:0.333333 102:0.0990056 103:0.705882 105:0.127232 107:0.221569 109:0.435294 112:0.577778 114:0.126674 117:0.239216 120:0.288889 124:0.321569 125:0.173541 127:0.173333 130:0.235352 131:0.337424 133:0.301961 134:0.291667 137:0.616993 143:0.211765 144:0.108398 146:0.313725 148:0.245117 151:0.246078 154:0.174902 155:0.216797 159:0.160677 162:0.190625 164:0.520313 166:0.661458 167:0.346875 170:0.433333 172:0.217647 173:0.173438 176:0.866667 177:0.0963542 185:0.232353 189:0.972549 199:0.603922 209:0.145058 211:0.433333 218:0.216667 220:0.216667 224:0.65625 225:0.87451 228:0.222549 229:0.492157 232:0.144444 236:0.0743634 237:0.303268 241:0.246078 248:0.437255 255:0.0890196 257:0.217647 262:0.435294 270:0.216667 274:0.324183 275:0.29281 276:0.108333 278:0.468627 287:0.148437 288:0.117188 289:0.488235 292:0.433333 293:0.402499 297:0.173333 310:0.298039 311:0.304575 312:0.159505 319:0.39375 330:0.433333 339:0.503405 340:0.318954 341:0.43306 344:0.476471 347:0.291503 350:0.0967882 358:0.22168 
1 1:0.548077 2:0.533396 3:0.53139 4:0.158445 5:0.3125 6:0.181682 7:0.735577 8:0.611227 9:0.126126 10:0.215315 11:0.378378 12:0.230631 13:0.273871 14:0.115097 15:0.224215 16:0.166667 17:0.445946 18:0.224224 19:0.125125 20:0.556054 21:0.201794 22:0.195495 24:0.2 25:0.136312 26:0.272624 28:0.285714 29:0.594595 30:0.220814 31:0.160232 33:0.215385 34:0.135698 35:0.251126 36:0.283784 37:0.1727 38:0.345291 39:0.201802 40:0.33635 41:0.227027 42:0.183482 44:0.743982 46:0.224387 48:0.520362 49:0.354104 50:0.236978 51:0.21267 52:0.483258 53:0.324499 55:0.203604 56:0.25 57:0.2 59:0.354788 60:0.428785 62:0.334842 63:0.0366752 64:0.187783 65:0.283937 66:0.208145 67:0.18012 68:0.613575 73:0.302036 76:0.346908 77:0.755656 80:0.352941 83:0.33635 84:0.490569 85:0.346908 86:0.253394 87:0.33635 89:0.346908 91:0.145234 100:0.384615 102:0.114101 103:0.271493 104:0.18175 105:0.146718 106:0.346908 111:0.334842 112:0.333333 114:0.292149 120:0.333333 123:0.393665 125:0.3 128:0.375566 130:0.542793 131:0.556208 140:0.177177 148:0.282658 151:0.283937 154:0.20181 155:0.25 159:0.246901 162:0.21982 164:0.2 166:0.762763 169:0.339367 173:0.2 181:0.178679 193:0.333333 195:0.048962 201:0.345345 203:0.260181 209:0.250762 210:1 211:0.5 223:0.549774 231:0.297297 242:0.777149 243:0.372372 245:0.5 252:0.757164 253:0.274887 285:0.504525 287:0.342342 293:0.458117 296:0.50905 312:0.367868 336:0.265837 339:0.257848 341:0.269645 342:0.384615 347:0.33635 350:0.111612 355:0.174925 364:0.187783 366:0.260181 
1 1:0.60491 2:0.355825 3:0.460373 4:0.150997 5:0.357372 6:0.346209 7:0.701146 8:0.332783 9:0.120172 10:0.307725 11:0.270386 12:0.219742 13:0.410918 14:0.438747 15:0.534188 17:0.141631 18:0.106819 19:0.119218 20:0.662393 21:0.480769 22:0.186266 23:0.197425 25:0.259698 26:0.259698 28:0.272226 29:0.424893 30:0.210345 31:0.152667 32:0.113305 33:0.205172 34:0.387876 35:0.23927 36:0.540773 37:0.329023 38:0.246795 39:0.384549 40:0.320402 41:0.216309 42:0.174894 44:0.660901 46:0.32616 49:0.170972 50:0.301118 52:0.230172 53:0.154557 54:0.148399 55:0.193991 57:0.190558 58:0.154557 59:0.540975 60:0.510785 61:0.72103 63:0.0699023 66:0.198276 68:0.389655 71:0.238197 76:0.33046 77:0.761143 81:0.206034 84:0.604846 87:0.320402 88:0.484914 91:0.0692032 95:0.427586 96:0.352011 97:0.329023 100:0.366379 102:0.163105 103:0.258621 104:0.173132 111:0.318966 121:0.649425 125:0.095299 126:0.240302 127:0.190517 128:0.357759 129:0.478448 130:0.775751 131:0.607679 139:0.356322 140:0.168813 141:0.538627 143:0.232759 144:0.119099 148:0.269313 149:0.323276 152:0.478448 154:0.384483 155:0.238197 156:0.360632 159:0.0588235 163:0.638054 164:0.190558 166:0.726753 179:0.476293 181:0.170243 183:0.480603 188:0.323276 194:0.318966 195:0.0466505 196:0.480603 201:0.658083 207:0.493534 209:0.278803 210:0.476293 212:0.244612 216:0.523605 219:0.480603 221:0.149601 223:0.523707 225:0.480603 231:0.141631 235:0.192241 236:0.081704 238:1 241:0.270474 243:0.354793 252:0.360632 267:0.480603 272:0.478448 274:0.356322 280:0.258621 285:0.480603 287:0.32618 291:0.476293 293:0.270311 300:0.476293 302:0.33046 303:0.318966 307:0.192241 310:0.163793 312:0.17525 317:0.0459585 320:0.363506 322:0.538793 328:0.497845 333:0.476293 339:0.491453 341:0.288114 345:0.476293 355:0.333333 358:0.121781 
1 1:0.313921 2:0.338468 3:0.175166 4:0.215447 5:0.113313 7:0.444721 8:0.237363 11:0.171429 13:0.566445 14:0.104336 15:0.406504 16:0.302041 17:0.538776 18:0.101587 20:0.126016 21:0.182927 22:0.177143 27:0.130029 28:0.129446 29:0.269388 31:0.435569 34:0.122959 38:0.156504 39:0.182857 41:0.205714 42:0.332794 43:0.235656 44:0.812837 46:0.289319 48:0.471311 49:0.155463 50:0.286429 53:0.146956 57:0.181224 59:0.19297 60:0.0485869 61:0.228571 63:0.0997387 67:0.244919 68:0.370492 69:0.226531 71:0.226531 75:0.322404 77:0.683529 84:0.647268 86:0.229508 87:0.304645 89:0.314208 91:0.0658274 93:0.231557 101:0.245918 102:0.206865 106:0.628415 107:0.231557 112:0.301913 115:0.304645 121:0.308743 123:0.356557 125:0.271951 127:0.181148 131:0.204088 135:0.452869 137:0.322404 139:0.338798 140:0.160544 148:0.256122 150:0.452869 151:0.257172 159:0.559541 163:0.303401 164:0.181224 171:0.442623 172:0.227459 173:0.362449 175:0.697959 176:0.452869 181:0.32381 186:0.105215 190:0.568163 196:0.456967 199:0.315574 209:0.113659 210:0.452869 215:0.930328 226:0.191803 229:0.257172 231:0.134694 236:0.116553 239:0.301913 250:0.452869 255:0.186066 259:0.301913 263:0.0664723 264:0.171448 265:0.467213 271:0.930328 275:0.306011 287:0.155102 288:0.244898 293:0.412057 305:0.193443 310:0.311475 312:0.166667 314:0.319672 317:0.087415 322:0.512295 326:0.322404 327:0.181224 339:0.11687 341:0.319238 343:0.23873 347:0.60929 350:0.303401 353:1 354:0.979508 355:0.158503 358:0.347449 363:0.70765 
1 1:0.600408 2:0.0528654 3:0.430909 4:0.54963 5:0.5575 6:0.360119 7:0.513047 10:0.533482 13:0.713478 14:0.798518 15:0.333333 16:0.495536 18:0.333333 19:0.124008 20:0.275556 21:0.4 22:0.19375 23:0.410714 24:0.594643 25:0.270179 26:0.405269 27:0.284439 28:0.566327 29:0.294643 32:0.117857 34:0.40346 35:0.497768 36:0.28125 39:0.4 41:0.225 42:0.242478 44:0.857911 46:0.241817 49:0.128361 50:0.0782905 54:0.463165 55:0.201786 56:0.247768 57:0.396429 58:0.160794 59:0.281307 60:0.424974 61:0.25 63:0.0363492 65:0.56278 67:0.535556 69:0.247768 71:0.743304 75:0.352765 77:0.834334 79:0.53139 83:1 84:0.775888 88:0.504484 91:0.0719713 97:0.342302 99:0.351271 100:0.381166 101:0.268973 102:0.226173 103:0.269058 106:0.343797 108:0.247758 112:0.330344 117:0.273543 118:0.198214 121:0.675635 125:0.099111 126:0.5 127:0.198206 131:0.714222 132:0.21435 134:0.333333 135:0.495516 138:0.201046 141:0.280134 143:0.242152 153:0.5 154:0.2 155:0.247768 156:0.375187 157:0.402093 159:0.122353 165:0.495516 167:0.198214 175:0.254464 179:0.991031 182:0.2 183:0.5 185:0.797085 191:0.508969 192:0.382661 195:0.0485248 196:0.5 201:0.684524 204:0.515695 209:0.207111 216:0.181548 221:0.155612 222:0.336323 224:0.375 231:0.589286 233:0.517937 234:1 235:0.2 237:0.346786 238:0.520179 239:0.330344 240:0.538117 245:0.991031 248:0.5 257:0.248879 258:0.141582 262:0.497758 263:0.218112 272:0.497758 287:0.339286 293:0.218012 295:0.995516 300:0.495516 302:0.343797 303:0.331839 304:1 317:0.0478051 327:0.198214 334:0.517937 341:0.507123 348:0.991031 349:0.766816 350:0.553075 355:0.520089 356:0.358744 358:0.126674 360:0.544843 
1 1:0.408958 2:0.151204 3:0.31953 4:0.299435 5:0.531515 6:0.171631 7:0.66948 8:0.0824877 9:0.119149 10:0.406809 11:0.0893617 12:0.108936 13:0.61799 14:0.217514 15:0.211865 16:0.314894 17:0.140426 18:0.10591 19:0.591017 20:0.262712 21:0.095339 23:0.391489 24:0.566809 25:0.128739 26:0.128739 27:0.135562 28:0.134954 29:0.140426 32:0.224681 33:0.203419 34:0.128191 35:0.237234 36:0.268085 40:0.317664 41:0.214468 42:0.202321 43:0.245726 44:0.924411 45:0.157407 46:0.246944 47:0.188889 48:0.163818 49:0.273791 50:0.0746415 51:0.200855 55:0.19234 56:0.47234 57:0.188936 59:0.268195 60:0.405166 61:0.238298 63:0.06931 64:0.354701 67:0.170198 72:0.211915 77:0.869634 78:0.449573 79:0.253205 80:0.333333 82:0.314815 83:0.317664 84:0.762761 90:0.280983 91:0.0686168 93:0.241453 97:0.326211 99:0.334758 100:0.363248 102:0.215631 106:0.327635 107:0.241453 108:0.472222 109:0.474359 110:0.319088 116:0.472222 117:0.260684 118:0.377872 119:0.344729 120:0.62963 122:0.489316 123:0.371795 125:0.188983 129:0.474359 130:0.256383 131:0.330189 138:0.191595 142:0.317664 144:0.118085 152:0.474359 157:0.383191 159:0.174975 160:0.944444 165:0.472222 166:0.360284 167:0.188936 169:0.641026 173:0.188936 182:0.190638 186:0.219385 190:0.197447 194:0.632479 202:0.404863 206:0.398291 209:0.315932 214:0.474359 217:0.374644 221:0.148328 222:0.320513 231:0.140426 236:0.0405043 245:0.472222 246:0.472222 263:0.0693009 265:0.24359 273:0.324786 274:0.353276 285:0.476496 288:0.255319 290:0.236111 292:0.472222 293:0.207443 309:0.794872 314:0.333333 315:0.109687 324:0.321937 327:0.188936 339:0.365466 341:0.316601 342:0.726496 343:0.248932 349:0.24359 350:0.105437 354:0.340456 355:0.330496 358:0.241489 
1 1:0.571598 2:0.459256 3:0.332748 4:0.545689 5:0.322876 6:0.156331 7:0.633728 8:0.225403 9:0.217054 10:0.277907 11:0.162791 12:0.595349 13:0.447724 14:0.495496 15:0.289575 16:0.430233 17:0.255814 18:0.482343 19:0.322997 20:0.478765 21:0.0868725 23:0.356589 24:0.516279 25:0.117218 28:0.122924 29:0.127907 31:0.275748 32:0.102326 33:0.185214 37:0.148508 38:0.0743243 41:0.586047 42:0.158077 43:0.447471 44:0.7313 45:0.14332 46:0.133481 47:0.171984 49:0.380725 50:0.136026 51:0.548638 52:0.415564 55:0.175194 56:0.430233 57:0.516279 58:0.279044 59:0.855326 60:0.276889 61:0.217054 62:0.287938 63:0.0947325 64:0.161479 65:0.73249 67:0.155084 68:0.175875 69:0.430233 70:0.632944 71:0.430233 72:0.386047 73:0.259728 74:0.223735 77:0.726909 78:0.409339 79:0.461089 84:0.608226 86:0.435798 91:0.125047 95:0.192996 97:0.594034 99:0.304799 100:0.330739 102:0.196482 104:0.156291 108:0.429961 112:0.286641 115:0.289235 120:0.573281 123:0.338521 124:0.319066 125:0.172201 126:0.216926 131:0.334676 133:0.299611 139:0.32166 142:0.289235 145:0.306096 147:0.107558 149:0.291829 154:0.173541 155:0.215116 160:0.429961 161:0.313878 164:0.516279 172:0.215953 173:0.172093 177:0.191214 184:0.573281 186:0.0999139 188:0.291829 189:0.64332 194:0.575875 196:0.433852 199:0.299611 201:0.297158 206:0.181323 209:0.0719691 213:0.294423 221:0.135105 224:0.325581 227:0.472763 229:0.488327 230:0.286641 231:0.255814 236:0.0368935 243:0.320413 249:0.449416 250:0.429961 258:0.122924 262:0.431907 263:0.0631229 276:0.10749 288:0.116279 292:0.429961 293:0.314875 294:0.464981 298:0.316472 302:0.298314 308:0.179767 310:0.14786 315:0.0998703 317:0.0830103 319:0.195349 339:0.555019 341:0.275539 344:0.472763 347:0.289235 350:0.0960379 357:0.286641 358:0.109981 365:0.286641 
1 1:0.383095 2:0.283208 3:0.0854979 4:0.420635 5:0.165923 6:0.0803453 7:0.482416 8:0.0772295 9:0.334661 11:0.0836653 12:0.305976 13:0.685299 14:0.101852 15:0.297619 18:0.198318 20:0.492064 21:0.446429 22:0.345817 27:0.253842 28:0.126352 32:0.105179 33:0.1904 34:0.24004 35:0.444223 39:0.178486 41:0.401594 42:0.1083 44:0.713345 46:0.192134 47:0.3536 49:0.29652 50:0.139805 51:0.188 52:0.2136 55:0.360159 59:0.502334 60:0.379441 62:0.296 63:0.0649093 66:0.184 67:0.318783 69:0.221116 71:0.221116 77:0.824697 81:0.1912 83:0.297333 84:0.79408 85:0.306667 87:0.297333 91:0.0963902 92:0.472 93:0.226 95:0.1984 96:0.326667 101:0.24004 102:0.050485 105:0.129767 109:0.444 118:0.353785 121:0.301333 123:0.348 125:0.176984 126:0.223 130:0.24004 131:0.344483 132:0.1912 136:0.288 137:0.314667 144:0.110558 146:0.32 148:0.25 155:0.221116 158:0.442 159:0.163866 163:0.296149 164:0.70757 165:0.884 173:0.176892 175:0.227092 181:0.316069 182:0.356972 186:0.1027 188:0.3 194:0.296 202:0.126352 207:0.458 209:0.221905 212:0.227 216:0.162019 221:0.138873 222:0.3 229:0.502 231:0.131474 232:0.147333 236:0.0379224 246:0.442 248:0.446 253:0.243 274:0.330667 278:0.478 281:0.446 287:0.302789 288:0.358566 289:0.498 290:0.221 293:0.334586 295:0.888 309:0.248 310:0.152 314:0.312 318:0.296 319:0.60239 320:0.337333 325:0.444 327:0.176892 330:0.442 331:0.236 339:0.513393 341:0.321228 343:0.233 347:0.297333 355:0.309429 358:0.113048 359:0.241 
1 1:0.299903 2:0.201606 3:0.0456472 4:0.374294 5:0.354343 7:0.411987 9:0.238298 10:0.101702 12:0.108936 13:0.715825 14:0.108757 15:0.317796 16:0.47234 17:0.280851 19:0.236407 20:0.262712 22:0.184681 24:0.188936 27:0.271125 28:0.269909 31:0.151368 32:0.11234 34:0.128191 36:0.268085 38:0.163136 41:0.214468 42:0.28903 43:0.245726 44:0.804646 46:0.227948 47:0.188889 49:0.30017 50:0.149283 55:0.19234 56:0.23617 59:0.201146 60:0.253228 61:0.238298 63:0.13862 64:0.17735 67:0.170198 69:0.47234 72:0.211915 77:0.715797 78:0.224786 83:0.317664 84:0.800724 91:0.137233 92:0.252137 93:0.241453 95:0.211966 99:0.334758 102:0.161723 103:0.25641 104:0.171652 107:0.241453 108:0.236111 110:0.319088 112:0.62963 114:0.275988 117:0.260684 118:0.377872 124:0.350427 125:0.377966 128:0.354701 131:0.388517 133:0.32906 137:0.336182 140:0.334752 144:0.354255 147:0.118085 150:0.472222 159:0.2333 160:0.472222 161:0.344729 162:0.415319 164:0.188936 167:0.377872 169:0.320513 170:0.472222 171:0.461538 176:0.472222 181:0.337589 186:0.109693 190:0.394894 191:0.485043 193:0.314815 195:0.0925069 198:0.258547 199:0.32906 202:0.404863 209:0.157966 212:0.242521 222:0.320513 229:0.268162 231:0.140426 236:0.0405043 241:0.268162 242:0.244658 243:0.351773 253:0.259615 257:0.237179 259:0.314815 263:0.0693009 265:0.24359 268:0.472222 286:0.252137 287:0.161702 288:0.510638 290:0.472222 293:0.357869 296:0.480769 310:0.324786 317:0.0455674 319:0.214468 324:0.321937 327:0.188936 334:0.49359 339:0.243644 341:0.545998 346:0.646724 350:0.105437 351:0.316239 354:0.340456 356:0.34188 358:0.482979 363:0.737892 
1 1:0.338596 2:0.15651 3:0.236244 4:0.309942 5:0.183388 6:0.0888399 7:0.42638 9:0.370044 10:0.105286 11:0.092511 12:0.225551 13:0.686312 14:0.225146 15:0.219298 16:0.162996 18:0.219285 20:0.135965 21:0.394737 23:0.202643 24:0.195595 26:0.133296 27:0.14034 29:0.290749 30:0.215929 32:0.1163 34:0.398128 35:0.245595 36:0.277533 38:0.337719 39:0.59207 42:0.388865 44:0.799298 45:0.162979 46:0.277221 47:0.39115 49:0.261236 50:0.231781 59:0.555212 60:0.157268 61:0.246696 62:0.327434 63:0.143484 66:0.40708 67:0.440424 70:0.359882 75:0.348083 77:0.704382 81:0.211504 84:0.780999 88:0.248894 91:0.0355121 93:0.25 94:0.605286 98:0.353982 101:0.265418 102:0.0557992 103:0.530973 105:0.143486 106:0.339233 107:0.25 108:0.244469 109:0.49115 111:0.327434 113:0.49115 114:0.142857 118:0.195595 125:0.391228 126:0.246681 129:0.49115 131:0.322293 134:0.164464 135:0.488938 144:0.122247 145:0.348083 146:0.353982 147:0.122247 156:0.370206 159:0.362229 162:0.429956 163:0.32746 167:0.195595 173:0.195595 180:0.143486 181:0.174743 190:0.204405 193:0.325959 194:0.654867 197:0.20793 205:0.493363 208:0.264381 209:0.204386 211:0.488938 216:0.179148 218:0.244469 231:0.145374 233:0.511062 235:0.197345 243:0.36417 256:0.245575 258:0.139711 260:0.359882 263:0.0717432 266:0.207965 282:0.268805 288:0.132159 293:0.285649 304:0.657817 321:0.488938 326:0.348083 329:0.294248 331:0.522124 338:0.361357 339:0.441338 341:0.329323 345:0.488938 347:0.328909 350:0.109153 356:0.353982 358:0.25 359:0.266593 366:0.254425 
1 1:0.0270357 3:0.0452636 7:0.178736 13:0.929864 14:0.107843 23:0.194093 24:0.187342 38:0.161765 42:0.315272 44:0.845045 46:0.263238 49:0.322575 50:0.370071 57:0.187342 59:0.199456 60:0.10044 63:0.103091 67:0.337535 77:0.839144 84:0.877756 91:0.20412 97:0.323446 102:0.267274 105:0.137432 122:0.485169 131:0.288701 144:0.234177 147:0.117089 159:0.462679 177:0.208158 181:0.16737 185:0.251059 186:0.217534 190:0.195781 194:0.313559 195:0.137589 206:0.394915 209:0.234958 212:0.240466 214:0.470339 216:0.171589 221:0.44123 226:0.198305 232:0.156073 236:0.0401625 242:0.242585 254:0.238347 257:0.235169 258:0.133816 263:0.0687161 264:0.17726 269:0.269068 276:0.23411 287:0.160338 293:0.441653 298:0.344633 299:0.192373 305:0.4 319:0.425316 339:0.362395 341:0.428878 342:0.360169 349:0.241525 350:0.209095 355:0.163854 358:0.478903 365:0.624294 
1 1:0.33871 2:0.240784 3:0.218071 4:0.42915 5:0.225708 6:0.0819783 7:0.565964 8:0.157598 9:0.341463 10:0.0971545 11:0.0853659 12:0.104065 13:0.643804 14:0.311741 16:0.150407 17:0.268293 18:0.202349 20:0.251012 21:0.0910931 22:0.176423 23:0.373984 24:0.360976 26:0.122959 27:0.259001 28:0.38676 29:0.134146 32:0.214634 34:0.122459 37:0.155782 38:0.233806 42:0.193347 43:0.469388 44:0.774408 45:0.15034 46:0.142698 47:0.180408 49:0.507154 50:0.213952 51:0.191837 54:0.140525 57:0.180488 59:0.512503 60:0.241951 63:0.0662233 67:0.569163 70:0.331973 71:0.22561 73:0.544898 75:0.321088 76:0.312925 77:0.816384 84:0.706332 85:0.312925 86:0.228571 91:0.163902 92:0.481633 93:0.230612 94:0.186179 99:0.639456 101:0.244919 102:0.154521 104:0.163946 114:0.131823 115:0.303401 117:0.24898 121:0.307483 124:0.669388 125:0.180567 126:0.227551 127:0.360816 130:0.489837 131:0.370407 132:0.195102 134:0.455285 138:0.182993 140:0.319783 141:0.510163 144:0.112805 154:0.182041 159:0.167183 162:0.198374 164:0.180488 166:0.344173 167:0.180488 172:0.226531 173:0.180488 174:0.942857 177:0.100271 179:0.45102 182:0.182114 184:0.30068 185:0.241837 186:0.209575 190:0.188618 193:0.30068 195:0.0883704 198:0.246939 204:0.234694 206:0.190204 209:0.150931 216:0.165312 226:0.19102 230:0.30068 231:0.268293 240:0.244898 254:0.229592 261:0.181224 270:0.22551 272:0.453061 276:0.112755 285:0.455102 286:0.240816 288:0.243902 293:0.437184 297:0.180408 298:0.331973 308:0.188571 310:0.155102 315:0.104762 317:0.0435298 319:0.409756 321:0.45102 331:0.240816 333:0.45102 337:0.45102 339:0.523785 341:0.346995 348:0.902041 349:0.232653 350:0.201445 353:0.24898 354:0.32517 355:0.315718 357:0.30068 358:0.115346 
1 1:0.346154 2:0.213359 3:0.0966164 4:0.554559 5:0.1875 7:0.38141 8:0.0873181 9:0.126126 11:0.0945946 12:0.230631 13:0.745769 14:0.345291 15:0.112107 16:0.5 18:0.112112 19:0.25025 20:0.278027 21:0.100897 22:0.195495 23:0.207207 24:0.2 27:0.287001 32:0.475676 34:0.135698 38:0.517937 41:0.454054 42:0.366964 44:0.819564 45:0.166667 46:0.244485 49:0.242467 50:0.315971 51:0.21267 52:0.241629 53:0.16225 59:0.354788 60:0.321589 61:0.252252 63:0.110026 67:0.360239 71:0.25 72:0.224324 75:0.355958 77:0.753553 78:0.476018 84:0.802139 90:0.297511 91:0.0363084 94:0.412613 101:0.271396 102:0.228201 105:0.146718 107:0.255656 110:0.337858 114:0.438224 117:0.552036 122:0.5181 123:0.393665 125:0.4 126:0.252262 131:0.3505 132:0.432579 134:0.168168 136:0.325792 138:0.405732 141:0.282658 144:0.125 145:0.355958 159:0.370351 160:0.5 162:0.21982 164:0.2 166:0.381381 167:0.4 173:0.4 177:0.111111 178:0.340875 180:0.146718 181:0.178679 182:0.201802 185:0.2681 186:0.348348 189:0.374057 193:0.333333 194:0.334842 200:0.196833 201:0.345345 202:0.142857 209:0.208969 211:0.5 216:0.366366 220:0.25 225:0.504525 227:0.549774 229:0.283937 233:0.522624 236:0.0428762 238:0.524887 244:0.3454 260:0.368024 269:0.28733 272:0.502262 279:0.278281 284:0.502262 288:0.135135 293:0.290701 297:0.2 301:0.223529 304:0.33635 305:0.213575 308:0.20905 312:0.367868 317:0.0482357 319:0.227027 326:0.355958 327:0.2 337:0.5 339:0.257848 340:0.368024 341:0.323291 343:0.527149 349:0.257919 
1 1:0.481448 2:0.421467 3:0.339298 4:0.208661 5:0.219488 6:0.318841 7:0.670085 8:0.229857 9:0.110672 10:0.188933 11:0.083004 12:0.101186 13:0.400417 14:0.30315 15:0.393701 16:0.146245 17:0.521739 18:0.19675 19:0.109794 20:0.488189 21:0.265748 22:0.514625 23:0.181818 24:0.350988 25:0.239087 28:0.250706 29:0.130435 31:0.281197 32:0.104348 33:0.188889 34:0.119071 38:0.227362 39:0.35415 41:0.597628 42:0.188039 43:0.456349 44:0.694871 46:0.207835 48:0.304233 49:0.342064 50:0.208056 53:0.14229 54:0.136621 55:0.357312 59:0.560676 60:0.470566 63:0.0643982 64:0.164683 66:0.18254 67:0.316273 68:0.179365 71:0.219368 72:0.590514 74:0.228175 76:0.304233 77:0.727497 81:0.189683 82:0.584656 84:0.560823 90:0.260913 91:0.223139 94:0.181028 95:0.196825 96:0.648148 99:0.310847 101:0.238142 102:0.250437 105:0.128741 106:0.304233 112:0.292328 115:0.294974 117:0.242063 118:0.175494 119:0.320106 121:0.298942 123:0.345238 124:0.325397 125:0.0877953 126:0.22123 131:0.377766 134:0.295125 137:0.312169 140:0.155468 142:0.294974 143:0.214286 144:0.109684 151:0.498016 155:0.219368 157:0.35582 159:0.216767 162:0.192885 164:0.175494 167:0.175494 171:0.857143 175:0.450593 179:0.438492 189:0.328042 195:0.0859254 201:0.30303 203:0.228175 209:0.183465 211:0.438492 215:0.450397 218:0.219246 221:0.275551 222:0.297619 224:0.996047 226:0.185714 227:0.482143 229:0.249008 235:0.353968 236:0.0376226 241:0.249008 242:0.227183 244:0.30291 246:0.438492 249:0.458333 261:0.17619 262:0.880952 263:0.128741 266:0.373016 269:0.251984 271:0.450397 281:0.44246 293:0.434379 303:0.293651 310:0.301587 313:0.297619 316:0.880952 318:0.293651 320:0.669312 321:0.438492 324:0.298942 331:0.234127 339:0.169783 341:0.425102 347:0.589947 350:0.195872 355:0.153491 358:0.224308 360:0.482143 362:0.464286 365:0.292328 366:0.228175 
1 1:0.387208 2:0.268302 3:0.121497 4:0.33208 5:0.261983 6:0.228302 7:0.411409 8:0.0731495 9:0.422642 10:0.180377 12:0.386415 13:0.730889 14:0.192983 15:0.37594 17:0.124528 19:0.104822 20:0.466165 21:0.25376 22:0.163774 25:0.22822 26:0.34233 27:0.240431 28:0.119677 32:0.199245 33:0.180303 34:0.227358 35:0.420755 38:0.0723685 41:0.190189 42:0.153933 43:0.217803 44:0.825334 45:0.13952 46:0.246517 47:0.669697 48:0.145202 49:0.0858835 50:0.0662233 51:0.534091 55:0.341132 56:0.209434 57:0.167547 59:0.416409 60:0.404404 61:0.422642 63:0.153733 67:0.226504 69:0.209434 71:0.209434 72:0.187925 77:0.849443 84:0.807702 85:0.290404 88:0.213068 90:0.249053 91:0.030439 92:0.44697 95:0.187879 100:0.32197 101:0.227358 102:0.143484 105:0.122911 116:0.418561 118:0.335094 120:0.27904 121:0.285354 125:0.0838346 127:0.167424 129:0.420455 130:0.227358 131:0.515221 132:0.362121 133:0.291667 138:0.169823 144:0.104717 146:0.30303 147:0.314151 155:0.418868 159:0.258735 162:0.184151 163:0.280503 164:0.167547 166:0.319497 172:0.210227 185:0.673295 187:0.232955 191:0.429924 192:0.323232 201:0.289308 202:0.119677 205:0.422348 209:0.14015 219:0.422348 222:0.284091 224:0.633962 228:0.214962 229:0.237689 230:0.27904 231:0.124528 236:0.0359189 237:0.585859 246:0.418561 248:0.422348 249:0.4375 255:0.0859848 263:0.0614555 281:0.422348 285:0.422348 287:0.143396 293:0.288618 310:0.575758 312:0.154088 316:0.420455 317:0.0404088 319:0.190189 335:0.424242 339:0.216165 341:0.349073 349:0.431818 356:0.606061 358:0.428302 364:0.157197 366:0.217803 
1 1:0.475524 2:0.362014 3:0.281028 4:0.614493 5:0.484783 6:0.176128 7:0.475524 8:0.169298 9:0.611354 10:0.208734 11:0.0917031 12:0.223581 13:0.589553 14:0.111594 15:0.217391 16:0.484716 17:0.576419 19:0.242601 20:0.134783 21:0.0978262 23:0.200873 24:0.387773 26:0.132127 27:0.139114 28:0.553961 29:0.144105 30:0.214035 32:0.576419 33:0.208772 34:0.13155 36:0.275109 38:0.167391 39:0.195633 42:0.177922 43:0.756579 44:0.814108 45:0.646199 46:0.0794366 47:0.387719 48:0.336257 49:0.420071 54:0.302005 55:0.19738 56:0.242358 59:0.275192 60:0.259834 61:0.244541 63:0.035559 67:0.174638 68:0.198246 69:0.484716 77:0.762342 78:0.461404 81:0.209649 82:0.323099 84:0.72593 87:0.326023 91:0.10561 93:0.247807 94:0.2 95:0.435088 99:0.343567 101:0.2631 102:0.110628 103:0.263158 104:0.352339 106:0.336257 107:0.247807 108:0.484649 110:0.654971 112:0.323099 114:0.141609 117:0.267544 118:0.387773 124:0.719298 125:0.29087 127:0.19386 130:0.2631 131:0.439017 133:0.337719 135:0.484649 138:0.196637 141:0.274017 144:0.121179 147:0.121179 151:0.275219 159:0.0598466 160:0.484649 169:0.328947 173:0.193886 174:0.506579 176:0.484649 179:0.484649 185:0.259868 186:0.450267 191:0.497807 195:0.0949307 196:0.489035 209:0.121565 214:0.486842 220:0.242325 222:0.328947 251:0.484649 258:0.276981 268:0.484649 269:0.278509 286:0.258772 287:0.165939 288:0.131004 291:0.484649 292:0.484649 293:0.289975 308:0.405263 310:0.166667 315:0.112573 319:0.220087 326:0.345029 327:0.387773 333:0.484649 339:0.5625 341:0.432563 357:0.323099 358:0.371725 
1 1:0.689231 2:0.584116 3:0.57711 4:0.473214 5:0.497768 6:0.2713 7:0.786553 8:0.521559 9:0.251121 10:0.643049 11:0.565022 12:0.114798 13:0.201994 14:0.229167 15:0.334821 16:0.165919 17:0.295964 18:0.223219 19:0.498256 20:0.415179 21:0.301339 22:0.389238 24:0.398206 25:0.407095 27:0.142857 28:0.142217 29:0.147982 30:0.21982 31:0.159513 32:0.118386 34:0.13509 37:0.515766 38:0.257813 40:0.66967 41:0.452018 42:0.213111 44:0.657109 45:0.165916 46:0.203127 48:0.172673 49:0.379656 50:0.0786402 52:0.240541 53:0.646075 54:0.155084 55:0.405381 56:0.497758 57:0.199103 58:0.161519 59:0.353204 60:0.533588 61:0.251121 62:0.333333 63:0.109534 64:0.560811 67:0.179315 68:0.203604 69:0.497758 71:0.497758 73:0.300676 74:0.259009 76:0.345345 77:0.670555 78:0.236937 82:0.663664 84:0.439899 85:0.345345 86:0.252252 88:0.253378 89:0.345345 90:0.888514 91:0.144585 99:0.352853 100:0.382883 102:0.113591 108:0.248874 114:0.14542 115:0.66967 118:0.199103 120:0.331832 121:0.339339 123:0.391892 125:0.298661 129:0.5 131:0.49221 133:0.346847 136:0.324324 144:0.124439 151:0.282658 155:0.248879 159:0.0614496 163:0.333333 164:0.199103 168:0.497748 170:0.497748 172:0.25 173:0.199103 176:0.497748 182:0.200897 186:0.115595 195:0.146227 199:0.346847 203:0.259009 207:0.515766 209:0.0832143 210:0.497748 211:0.497748 220:0.248874 221:0.15631 224:0.753363 230:0.331832 236:0.0853679 241:0.282658 242:0.257883 244:0.343844 246:0.497748 252:0.376877 254:0.253378 262:1 268:0.497748 274:0.372372 284:0.5 287:0.340807 288:0.269058 293:0.299131 306:0.352853 312:0.366218 314:0.351351 315:0.115616 316:1 317:0.0960389 319:0.452018 320:0.37988 324:0.339339 327:0.398206 336:0.793919 339:0.320871 341:0.377785 345:0.497748 366:0.259009 
0.1082927672954921 1:0.71267 2:0.482812 3:0.397518 4:0.912669 5:0.617159 6:0.298765 7:0.852564 8:0.215385 9:0.725926 10:0.354074 11:0.155556 12:0.568889 13:0.494288 14:0.378844 15:0.276753 16:0.548148 17:0.366667 18:0.460905 19:0.514403 20:0.343173 21:0.249077 23:0.511111 24:0.657778 25:0.335967 26:0.111989 27:0.117989 28:0.469841 31:0.131746 32:0.782222 34:0.223148 35:0.412963 37:0.283767 38:0.0710333 42:0.0503676 43:0.427509 44:0.891614 45:0.684634 46:0.191284 47:0.985874 48:0.142503 49:0.150531 50:0.0650015 51:0.698885 53:0.133298 54:0.255975 55:0.334815 56:0.205556 57:0.328889 58:0.266596 59:0.817452 60:0.573361 61:0.207407 62:0.275093 63:0.0301793 64:0.154275 65:0.699814 66:0.171004 67:0.0741083 70:0.302354 72:0.184444 73:0.496283 74:0.213755 75:0.292441 77:0.899989 78:0.391078 79:0.22026 83:0.828996 84:0.660329 86:0.416357 88:0.209108 90:0.244424 91:0.0597548 92:0.219331 95:0.184387 96:0.303594 97:0.567534 99:0.582404 100:0.315985 102:0.0938909 103:0.223048 108:0.20539 110:0.555143 112:0.273854 116:0.410781 117:0.226766 118:0.328889 119:0.299876 121:0.28005 122:0.425651 124:0.304833 126:0.207249 127:0.164312 129:0.412639 130:0.446296 131:0.505386 132:0.177695 138:1 142:0.276332 144:0.102778 150:0.410781 152:0.412639 158:0.410781 159:0.0507923 160:0.410781 161:0.299876 164:0.493333 165:0.821561 169:0.27881 179:0.410781 182:0.497778 188:0.27881 192:0.317224 202:0.11746 203:0.213755 209:0.275129 211:0.410781 212:0.210967 216:0.150617 221:0.129101 222:0.27881 226:0.173978 231:0.366667 236:0.0352538 239:0.273854 245:0.410781 250:0.410781 256:0.20632 261:0.165056 263:0.0603175 282:0.225836 286:0.219331 287:0.140741 288:0.111111 290:0.20539 293:0.39758 302:0.285006 307:0.165799 310:0.141264 319:0.186667 339:0.159133 341:0.329645 342:0.63197 347:0.276332 355:0.143827 358:0.210185 359:0.223978 365:0.273854 
1 1:0.459714 2:0.330409 3:0.341991 4:0.210317 5:0.22123 6:0.0803453 7:0.410054 8:0.154459 9:0.223108 10:0.285657 11:0.0836653 12:0.101992 13:0.461226 14:0.203704 15:0.396826 17:0.131474 19:0.110668 20:0.369048 21:0.446429 22:0.691633 23:0.366534 24:0.353785 25:0.1205 27:0.126921 28:0.126352 29:0.525896 31:0.425157 35:0.222112 36:0.501992 38:0.229167 39:0.178486 42:0.324901 44:0.737591 46:0.281106 48:0.153333 49:0.22239 50:0.139805 51:0.188 52:0.2136 54:0.137714 55:0.18008 56:0.442231 57:0.176892 58:0.143429 59:0.0627917 60:0.04743 63:0.0973639 64:0.166 67:0.239087 68:0.1808 69:0.442231 70:0.325333 73:0.267 74:0.23 77:0.659649 84:0.556227 85:0.613333 89:0.306667 91:0.16065 92:0.236 94:0.18247 97:0.305333 99:0.313333 101:0.48008 102:0.252425 104:0.160667 105:0.129767 113:0.444 120:0.294667 125:0.353968 128:0.332 130:0.24004 131:0.308057 132:0.1912 133:0.308 134:0.148738 135:0.442 136:0.576 140:0.313413 143:0.216 146:0.32 147:0.221116 148:0.5 151:0.251 154:0.3568 155:0.442231 163:0.296149 166:0.337317 170:0.442 171:0.864 181:0.158035 182:0.178486 183:0.892 185:0.237 186:0.1027 190:0.184861 191:0.454 195:0.043305 199:0.308 200:0.174 202:0.252703 204:0.46 209:0.0369841 211:0.442 213:0.302667 218:0.221 221:0.277746 226:0.3744 233:0.462 243:0.988048 244:0.305333 252:0.334667 258:0.126352 263:0.0648833 264:0.334667 273:0.304 281:0.892 285:0.446 287:0.151394 288:0.239044 293:0.389642 296:0.9 303:0.296 319:0.200797 327:0.176892 328:0.462 331:0.236 337:0.442 339:0.228175 341:0.305242 342:0.34 350:0.0987162 358:0.113048 364:0.166 
1 1:0.474012 2:0.138311 3:0.292283 4:0.273902 5:0.432171 6:0.235409 7:0.494802 8:0.0754265 10:0.371984 11:0.163424 12:0.0996109 13:0.572633 14:0.497416 15:0.387597 16:0.287938 18:0.193688 19:0.324254 20:0.48062 21:0.261628 23:0.357977 24:0.345525 25:0.235352 31:0.27682 32:0.102724 33:0.185938 34:0.586089 35:0.216926 37:0.149089 38:0.0746124 40:0.290365 42:0.185135 44:0.679733 46:0.221128 49:0.165529 50:0.136553 51:0.183594 55:0.351751 57:0.345525 58:0.420201 59:0.245326 60:0.416944 61:0.217899 63:0.158499 64:0.324219 65:0.245117 67:0.155685 69:0.215953 70:0.317708 71:0.431907 74:0.224609 75:0.614583 77:0.69805 79:0.231445 84:0.654193 88:0.439453 89:0.299479 91:0.188297 97:0.298177 101:0.234436 102:0.147933 103:0.9375 105:0.253474 108:0.21582 115:0.290365 117:0.238281 121:0.294271 122:0.447266 125:0.172868 126:0.217773 130:0.468872 131:0.442791 139:0.322917 141:0.488327 142:0.290365 144:0.107977 147:0.107977 149:0.292969 152:0.433594 155:0.431907 159:0.160055 162:0.189883 163:0.289235 164:0.172763 167:0.172763 172:0.216797 174:0.451172 180:0.126737 181:0.154345 184:0.28776 185:0.231445 188:0.292969 195:0.0845881 196:0.435547 200:0.169922 201:0.298314 208:0.233398 209:0.18062 211:0.431641 221:0.135631 224:0.980545 231:0.256809 236:0.037037 237:0.302083 239:0.28776 243:0.32166 246:0.431641 253:0.237305 255:0.0886719 259:0.28776 263:0.0633685 272:0.433594 287:0.14786 288:0.116732 293:0.33847 297:0.172656 299:0.177344 300:0.431641 303:0.289062 310:0.148437 312:0.158885 316:0.433594 317:0.0833333 323:0.431641 324:0.294271 328:0.451172 333:0.431641 336:0.229492 339:0.167151 341:0.326004 344:0.474609 348:0.863281 349:0.222656 350:0.192823 354:0.622396 355:0.151102 358:0.110409 364:0.162109 
1 1:0.54638 2:0.21946 3:0.516773 4:0.260763 5:0.462869 6:0.373457 7:0.650641 8:0.14359 9:0.207407 10:0.531111 11:0.233333 12:0.0948148 13:0.491957 14:0.662977 15:0.461255 17:0.122222 18:0.0921811 19:0.514403 20:0.114391 21:0.166052 23:0.681481 24:0.657778 25:0.335967 26:0.111989 27:0.117989 28:0.234921 29:0.122222 30:0.181413 31:0.131746 32:0.0977778 33:0.353903 34:0.111574 35:0.206481 37:0.141884 38:0.2131 39:0.165926 42:0.151103 43:0.213755 44:0.836688 46:0.191284 49:0.288435 50:0.195004 52:0.198513 54:0.127987 55:0.334815 56:0.205556 57:0.493333 58:0.399894 59:0.467115 60:0.573361 61:0.414815 63:0.150896 64:0.771375 69:0.205556 70:0.907063 71:0.411111 74:0.213755 77:0.72818 79:0.44052 83:0.276332 84:0.604591 89:0.285006 91:0.11951 92:0.219331 96:0.303594 97:0.567534 99:0.582404 100:0.315985 102:0.0938909 105:0.24127 108:0.616171 110:0.277571 111:0.275093 115:0.276332 116:0.410781 118:0.328889 121:0.28005 122:0.425651 124:0.304833 125:0.0822879 126:0.207249 127:0.164312 129:0.412639 130:0.223148 131:0.522327 133:0.286245 141:0.92963 144:0.205556 145:0.292441 147:0.205556 148:0.232407 154:0.165799 160:0.410781 163:0.275309 164:0.164444 167:0.164444 169:0.27881 172:0.20632 174:0.858736 175:0.211111 184:0.547708 188:0.27881 191:0.421933 195:0.0402576 201:0.283951 207:0.425651 209:0.103173 212:0.210967 219:0.414498 221:0.129101 223:0.451673 228:0.421933 231:0.611111 236:0.0705075 238:0.431227 242:0.638476 263:0.0603175 264:0.155514 268:0.410781 271:0.421933 272:0.825279 275:0.555143 288:0.222222 293:0.452591 300:0.410781 302:0.285006 312:0.151235 317:0.0396605 318:0.275093 322:0.464684 324:0.28005 325:0.412639 327:0.164444 333:0.821561 334:0.429368 336:0.218401 339:0.37131 341:0.411629 347:0.276332 357:0.273854 364:0.154275 365:0.547708 
1 1:0.654693 2:0.421053 3:0.524336 4:0.234513 5:0.616704 6:0.537778 7:0.725856 8:0.344615 10:0.424889 11:0.373333 12:0.113778 13:0.391362 14:0.227139 15:0.774336 16:0.328889 18:0.331852 19:0.37037 20:0.274336 21:0.298673 22:0.578667 23:0.408889 25:0.268973 26:0.40346 28:0.704762 29:0.146667 31:0.474286 33:0.6375 34:0.133889 35:0.247778 37:0.170387 39:0.199111 40:0.331845 41:0.224 44:0.815268 46:0.299998 49:0.0445215 52:0.238393 53:0.160077 54:0.307398 55:0.803556 56:0.246667 57:0.394667 58:0.320153 59:0.350078 60:0.581753 61:0.497778 62:0.330357 63:0.180942 64:0.185268 65:0.560268 70:0.72619 74:0.513393 75:0.35119 76:0.684524 77:0.80103 78:0.234821 84:0.584071 86:0.25 89:0.684524 91:0.0358264 96:0.364583 97:0.681548 98:0.357143 100:0.379464 102:0.168879 103:0.267857 104:0.537946 106:0.342262 116:0.493304 118:0.592 120:0.328869 123:0.388393 126:0.248884 130:0.267778 131:0.731287 137:0.35119 139:0.369048 143:0.482143 144:0.123333 147:0.37 148:0.278889 159:0.182717 160:0.493304 163:0.33037 164:0.394667 167:0.197333 171:0.482143 175:0.253333 182:0.199111 191:0.506696 192:0.380952 196:0.995536 202:0.422857 203:0.256696 204:0.256696 205:0.497768 209:0.288673 212:0.253348 222:0.669643 223:0.542411 229:0.280134 230:0.328869 231:0.293333 236:0.0423045 239:0.328869 245:0.493304 246:0.986607 259:0.328869 263:0.144762 271:0.506696 278:0.533482 286:0.263393 288:0.133333 293:0.283594 297:0.197321 302:0.342262 309:0.276786 317:0.0475926 325:0.495536 329:0.59375 339:0.0636062 341:0.334059 342:0.379464 
1 1:0.584995 2:0.294911 3:0.534185 4:0.365014 5:0.403151 6:0.334716 7:0.652949 8:0.160868 9:0.232365 10:0.595021 11:0.435685 13:0.485728 14:0.424243 15:0.309917 16:0.153527 17:0.136929 18:0.206547 19:0.345781 20:0.256198 21:0.371901 23:0.572614 24:0.368465 25:0.376562 26:0.376562 28:0.263189 29:0.136929 30:0.406667 31:0.147599 32:0.219087 35:0.231328 37:0.159028 38:0.0795454 39:0.185892 40:0.619444 41:0.209129 42:0.0845679 43:0.239583 44:0.846952 46:0.165333 48:0.159722 49:0.160463 53:0.149405 54:0.143452 55:0.187552 56:0.460581 57:0.184232 59:0.326932 60:0.59268 61:0.46473 63:0.0675915 64:0.51875 66:0.383333 67:0.165978 68:0.188333 69:0.23029 70:0.338889 74:0.239583 77:0.795983 82:0.306944 84:0.642769 87:0.309722 89:0.319444 90:0.273958 91:0.100373 97:0.318056 99:0.326389 101:0.5 102:0.210285 104:0.334722 108:0.230208 112:0.306944 117:0.254167 120:0.613889 122:0.477083 123:0.3625 126:0.232292 131:0.64391 138:0.373611 141:0.520747 142:0.309722 146:0.333333 154:0.185833 159:0.170637 160:0.460417 163:0.616874 166:0.702628 167:0.184232 169:0.3125 170:0.460417 174:0.9625 179:0.460417 182:0.185892 186:0.106962 194:0.308333 196:0.464583 197:0.195851 203:0.239583 205:0.929167 209:0.115537 221:0.144635 225:0.464583 226:0.195 231:0.273859 235:0.185833 239:0.306944 263:0.135151 264:0.348611 272:0.4625 292:0.920833 293:0.317365 304:0.309722 308:0.1925 318:0.308333 326:0.327778 337:0.460417 339:0.178202 341:0.335552 343:0.242708 348:0.920833 349:0.2375 350:0.205625 352:0.497917 355:0.322268 
1 1:0.0260546 2:0.0481568 3:0.0436143 6:0.0819783 7:0.369107 8:0.0787993 12:0.104065 13:0.777323 33:0.194286 38:0.233806 42:0.441935 44:0.709858 46:0.306076 49:0.204655 50:0.427904 51:0.191837 52:0.217959 59:0.320314 60:0.0967805 63:0.165558 67:0.243927 77:0.639244 84:0.79393 91:0.131122 96:0.333333 102:0.206028 125:0.180567 131:0.0917046 144:0.338415 159:0.724458 162:0.396748 167:0.541463 177:0.100271 180:0.264808 181:0.161247 186:0.209575 190:0.377236 195:0.0883704 197:0.38374 202:0.12892 206:0.190204 209:0.339595 216:0.165312 221:0.283391 226:0.382041 232:0.45102 264:0.512245 269:0.259184 275:0.304762 287:0.154472 293:0.347013 297:0.360816 303:0.604082 305:0.192653 312:0.165989 315:0.104762 317:0.0435298 319:0.409756 321:0.45102 331:0.240816 339:0.290992 341:0.397597 346:0.308844 349:0.232653 355:0.631436 358:0.115346 
1 1:0.30527 2:0.282089 3:0.0851599 4:0.349144 5:0.0550889 6:0.0800265 7:0.456491 8:0.0769231 9:0.222222 12:0.304762 13:0.700671 14:0.304348 15:0.296443 16:0.146825 17:0.392857 18:0.197531 20:0.245059 21:0.177866 23:0.18254 24:0.17619 26:0.12002 27:0.126417 31:0.282313 32:0.209524 35:0.44246 38:0.152174 41:0.2 42:0.296654 43:0.458167 44:0.755734 45:0.293493 46:0.262051 47:0.352191 48:0.152722 49:0.270157 50:0.069626 51:0.374502 55:0.179365 56:0.220238 57:0.352381 59:0.625436 60:0.236213 61:0.222222 63:0.0969791 65:0.25 67:0.317523 71:0.220238 72:0.197619 73:0.265936 77:0.751284 84:0.812692 91:0.128012 94:0.181746 95:0.19761 97:0.304117 99:0.312085 100:0.677291 102:0.0502855 110:0.297477 114:0.128685 115:0.296149 116:0.440239 125:0.264427 131:0.36119 138:0.178619 139:0.329349 140:0.156085 142:0.592297 144:0.220238 146:0.318725 151:0.25 153:0.444223 155:0.220238 159:0.380842 161:0.321381 162:0.193651 165:0.440239 167:0.352381 168:0.440239 173:0.17619 175:0.22619 179:0.440239 181:0.157407 182:0.177778 185:0.708167 189:0.329349 194:0.294821 195:0.1294 196:0.444223 198:0.241036 201:0.304233 209:0.257866 212:0.226096 215:0.452191 216:0.161376 224:0.666667 226:0.186454 227:0.484064 231:0.130952 236:0.0377719 237:0.308101 245:0.440239 246:0.440239 250:0.880478 257:0.221116 262:0.442231 271:0.452191 280:0.239044 283:0.440239 284:0.442231 286:0.47012 287:0.452381 288:0.119048 293:0.310218 301:0.196813 302:0.61089 313:0.298805 316:0.442231 327:0.17619 331:0.47012 336:0.234064 339:0.340909 341:0.345785 349:0.227092 350:0.294974 358:0.112599 359:0.24004 366:0.458167 
1 1:0.543227 2:0.211462 3:0.239394 4:0.471111 5:0.433611 6:0.270089 7:0.513047 9:0.25 10:0.426786 11:0.09375 13:0.700452 14:0.228148 15:0.666667 16:0.165179 17:0.294643 18:0.111111 19:0.124008 20:0.275556 21:0.6 22:0.19375 24:0.198214 25:0.270179 26:0.13509 27:0.284439 28:0.283163 31:0.158801 32:0.353571 34:0.268973 35:0.497768 36:0.28125 38:0.256667 39:0.2 40:0.333333 41:0.225 42:0.242478 43:0.515695 44:0.77836 45:0.330344 46:0.182056 49:0.100699 54:0.154388 55:0.605357 56:0.495536 57:0.198214 59:0.421961 60:0.424974 61:0.75 63:0.145397 65:0.28139 67:0.0892592 71:0.247768 74:0.257848 77:0.829424 80:0.349776 81:0.4287 82:0.660688 83:0.333333 84:0.781109 86:0.251121 88:0.504484 89:0.343797 90:0.294843 91:0.0359856 94:0.204464 98:0.358744 101:0.268973 102:0.16963 103:0.538117 108:0.247758 110:0.334828 111:0.331839 114:0.14477 116:0.991031 118:0.396429 120:0.330344 124:0.367713 125:0.297333 127:0.198206 131:0.449167 132:0.21435 134:0.166667 136:0.32287 141:0.280134 143:0.242152 144:0.123884 147:0.247768 153:0.5 155:0.247768 158:0.495516 159:0.367059 162:0.653571 163:0.66369 166:0.377976 167:0.198214 168:0.495516 172:0.248879 182:0.4 188:0.336323 191:0.508969 192:0.382661 193:0.330344 196:0.5 201:0.342262 202:0.141582 203:0.257848 205:1 209:0.165689 211:0.495516 218:0.247758 219:0.5 221:0.155612 222:0.336323 231:0.147321 236:0.0424934 237:0.346786 239:0.330344 241:0.28139 258:0.141582 266:0.210762 267:0.5 284:0.995516 286:0.264574 288:0.133929 293:0.318513 305:0.211659 307:0.2 310:0.170404 317:0.0478051 320:0.378176 326:0.352765 339:0.255556 341:0.403148 342:0.381166 345:0.495516 355:0.346726 358:0.380022 359:0.270179 
1 1:0.0769231 2:0.0947788 4:0.0703851 7:0.387464 12:0.1024 13:0.718604 14:0.102258 20:0.247012 22:0.1736 32:0.1056 38:0.153387 41:0.4032 42:0.32619 44:0.828121 46:0.264583 49:0.397518 50:0.0701807 57:0.1776 59:0.126084 60:0.285714 63:0.130336 67:0.560093 71:0.222 77:0.668723 84:0.765122 85:0.307898 91:0.0645161 94:0.1832 102:0.354803 125:0.0888445 131:0.199646 134:0.149333 138:0.180054 144:0.111 145:0.31593 157:0.360107 159:0.383876 166:0.677333 167:0.3552 172:0.222892 173:0.1776 177:0.0986667 186:0.103111 189:0.331995 190:0.3712 195:0.0434783 197:0.1888 202:0.507429 209:0.334183 218:0.221888 221:0.139429 225:0.895582 236:0.0380741 242:0.459839 248:0.447791 258:0.126857 265:0.228916 269:0.25502 274:0.331995 275:0.299866 282:0.243976 287:0.152 288:0.12 293:0.348357 297:0.17751 303:0.297189 309:0.497992 315:0.103079 332:0.181392 339:0.343625 341:0.349981 349:0.228916 350:0.297333 355:0.155333 357:0.5917 
1 1:0.497041 2:0.408403 3:0.323644 4:0.227468 5:0.179453 6:0.0869253 7:0.521587 8:0.250663 9:0.362069 11:0.271552 13:0.526519 14:0.550787 15:0.429184 17:0.426724 18:0.10728 19:0.119732 20:0.532189 21:0.193133 22:0.374138 23:0.594828 27:0.137315 28:0.1367 29:0.426724 30:0.211255 31:0.30665 33:0.206061 34:0.129849 37:0.165224 38:0.247854 39:0.193103 42:0.380556 43:0.497835 44:0.820699 46:0.250841 48:0.33189 49:0.14562 50:0.151205 55:0.194828 57:0.382759 58:0.155226 59:0.271649 60:0.153893 61:0.241379 66:0.199134 67:0.172389 68:0.391342 69:0.239224 70:0.704185 74:0.248918 77:0.707166 84:0.610649 86:0.242424 87:0.321789 89:0.33189 91:0.0347501 92:0.255411 100:0.367965 101:0.259698 102:0.382213 113:0.480519 114:0.139778 118:0.382759 121:0.326118 125:0.574249 129:0.480519 130:0.259698 131:0.314984 132:0.206926 133:0.333333 134:0.16092 136:0.623377 140:0.16954 141:0.270474 143:0.467532 152:0.480519 154:0.193074 155:0.239224 159:0.531684 162:0.210345 164:0.382759 166:0.364943 173:0.191379 174:0.5 177:0.106322 185:0.256494 190:0.4 193:0.318903 209:0.28 210:0.478355 224:0.362069 231:0.284483 233:1 235:0.193074 240:0.25974 243:0.712644 246:0.478355 250:0.478355 252:0.362193 258:0.1367 263:0.350985 265:0.246753 267:0.482684 273:0.329004 275:0.323232 281:0.482684 287:0.163793 288:0.12931 293:0.392715 296:0.487013 298:0.352092 299:0.196537 304:0.321789 307:0.193074 312:0.352011 321:0.478355 327:0.382759 328:1 338:0.353535 339:0.185086 340:0.352092 341:0.328789 344:0.525974 347:0.321789 349:0.493506 350:0.213602 355:0.167385 362:0.506494 366:0.497835 
1 1:0.490385 2:0.213359 3:0.289849 4:0.554559 5:0.4375 6:0.272523 7:0.544872 8:0.261954 9:0.126126 10:0.107658 12:0.115315 13:0.702331 14:0.230194 15:0.224215 16:0.5 18:0.448448 19:0.375375 20:0.278027 21:0.403587 22:0.586486 23:0.207207 24:0.4 25:0.136312 26:0.136312 27:0.143501 28:0.285714 29:0.148649 32:0.118919 33:0.215385 34:0.135698 35:0.502252 36:0.567568 38:0.0863228 39:0.201802 42:0.183482 44:0.840718 46:0.385172 49:0.0191943 52:0.241629 54:0.155785 55:0.203604 56:0.25 57:0.2 58:0.16225 59:0.354788 60:0.375187 61:0.252252 62:0.334842 63:0.110026 65:0.567873 66:0.208145 67:0.0900597 68:0.204525 71:0.25 73:0.302036 75:0.355958 76:0.693816 77:0.879852 78:0.238009 79:0.536199 83:0.33635 84:0.77138 85:0.346908 90:0.595023 96:0.369532 97:0.3454 101:0.542793 102:0.342302 106:0.346908 107:0.255656 110:0.337858 111:0.334842 118:0.2 121:0.340875 125:0.2 126:0.504525 128:0.375566 130:0.542793 131:0.391641 132:0.21629 136:0.325792 137:0.355958 142:0.33635 143:0.244344 146:0.361991 147:0.125 152:0.502262 153:0.504525 156:0.378582 159:0.432076 162:0.21982 163:0.334835 167:0.2 179:0.5 182:0.403604 185:0.804299 186:0.116116 192:0.386124 202:0.142857 207:0.5181 209:0.376143 219:0.504525 230:0.333333 231:0.594595 236:0.0428762 239:0.333333 246:0.5 255:0.102715 263:0.0733591 281:0.504525 287:0.513514 288:0.135135 291:1 293:0.269773 308:0.20905 312:0.183934 315:0.116139 317:0.0482357 321:0.5 326:0.355958 327:0.2 331:0.533937 337:1 339:0.193386 341:0.380824 342:0.384615 349:0.773756 350:0.111612 355:0.34985 356:0.361991 357:0.333333 358:0.255631 359:0.272624 
1 1:0.402051 2:0.212406 3:0.240463 4:0.315476 5:0.311105 6:0.180867 7:0.406838 8:0.173853 9:0.125561 10:0.21435 11:0.0941704 13:0.699735 14:0.458333 15:0.334821 16:0.165919 17:0.147982 18:0.111609 20:0.276786 21:0.100447 22:0.389238 23:0.206278 24:0.398206 25:0.135698 28:0.142217 32:0.236771 34:0.405269 36:0.282511 38:0.0859376 41:0.226009 42:0.334889 44:0.848683 46:0.303171 48:0.172673 49:0.101805 50:0.23592 53:0.161519 54:0.155084 55:0.405381 56:0.248879 57:0.398206 59:0.0706408 60:0.213435 63:0.109534 66:0.207207 67:0.268973 69:0.248879 71:0.497758 72:0.223318 73:0.300676 75:0.354354 76:0.345345 77:0.739683 79:0.266892 80:0.351351 83:0.334835 84:0.715435 88:0.253378 91:0.0361463 96:0.735736 102:0.283978 103:0.540541 105:0.14606 108:0.248874 109:0.5 110:0.336336 117:0.274775 118:0.199103 123:0.391892 125:0.298661 128:0.373874 130:0.270179 131:0.307895 136:0.324324 137:0.708709 141:0.28139 142:0.334835 144:0.124439 147:0.248879 148:0.28139 159:0.245798 161:0.363363 162:0.656502 163:0.333333 166:0.379671 170:0.497748 172:0.25 174:0.52027 175:0.255605 179:0.497748 181:0.177877 185:0.533784 186:0.115595 190:0.416144 191:0.511261 194:1 195:0.0487424 200:0.195946 201:0.343797 203:0.259009 207:0.515766 209:0.29125 210:0.497748 212:0.255631 214:0.5 216:0.182362 227:0.547297 231:0.147982 232:0.165916 236:0.0426839 255:0.102252 256:0.25 267:0.502252 268:0.497748 282:0.547297 285:0.502252 287:0.170404 293:0.214833 302:0.345345 310:0.342342 312:0.183109 315:0.115616 319:0.226009 321:0.995495 322:0.563063 325:0.5 333:0.497748 339:0.256696 341:0.236153 349:0.256757 350:0.111111 353:0.274775 354:0.358859 355:0.174141 358:0.254484 359:0.271396 363:0.388889 366:0.259009 
1 1:0.620308 2:0.33439 3:0.346112 4:0.425703 5:0.503765 6:0.325269 7:0.537026 8:0.156328 9:0.33871 10:0.289113 11:0.254032 13:0.50144 14:0.515395 15:0.803213 16:0.298387 17:0.133065 18:0.100358 19:0.224014 20:0.248996 21:0.271084 22:0.525 23:0.185484 24:0.179032 25:0.365891 27:0.642281 30:0.395142 31:0.286866 34:0.485887 37:0.154521 39:0.36129 42:0.2192 44:0.772461 46:0.357195 48:0.155196 49:0.0517922 50:0.212233 53:0.145171 56:0.671371 57:0.179032 58:0.290341 59:0.254193 60:0.240008 61:0.903226 63:0.22992 64:0.168016 66:0.186235 67:0.0806559 71:0.22379 72:0.200806 73:0.270243 75:0.318489 77:0.705576 79:0.239879 84:0.573573 87:0.601889 88:0.227733 91:0.0650343 92:0.477733 93:0.91498 96:0.661269 101:0.485887 102:0.102187 103:0.242915 105:0.262673 107:0.45749 118:0.716129 120:0.298246 121:0.304993 125:0.268675 129:0.898785 131:0.459443 135:0.447368 136:0.291498 139:0.334683 141:0.759073 142:0.300945 143:0.437247 147:0.111895 150:0.447368 153:0.451417 155:0.22379 157:0.363023 159:0.0552799 164:0.179032 166:0.341398 167:0.716129 168:0.447368 171:0.874494 172:0.224696 174:0.467611 175:0.229839 179:0.447368 180:0.262673 181:0.159946 186:0.103943 192:0.345479 201:0.61828 208:0.241903 209:0.149719 216:0.163978 231:0.399194 234:0.451417 235:0.180567 236:0.0767622 238:0.939271 239:0.298246 243:1 244:0.309042 249:0.467611 258:0.12788 263:0.0656682 267:0.451417 268:0.447368 272:0.898785 275:0.302294 281:0.451417 287:0.153226 288:0.241935 293:0.367682 294:0.483806 296:0.455466 302:0.310391 310:0.307692 311:0.62888 317:0.129536 319:0.203226 325:0.449393 328:0.467611 335:0.453441 339:0.115462 341:0.472322 343:0.23583 348:0.894737 351:0.299595 354:0.645074 355:0.313172 358:0.572077 362:0.473684 364:0.168016 
1 1:0.584881 2:0.617908 3:0.699528 4:0.152958 5:0.301677 6:0.350725 7:0.657604 8:0.758528 9:0.121739 10:0.519565 11:0.730435 12:0.222609 13:0.396716 14:0.222222 15:0.324675 19:0.120773 20:0.134199 21:0.194805 22:0.377391 23:0.2 24:0.193043 25:0.394651 26:0.13155 27:0.277019 28:0.551553 29:0.286957 30:0.2131 31:0.309317 33:0.20786 35:0.242391 37:1 40:0.3246 42:0.0885776 44:0.911284 46:0.195279 49:0.0673135 50:0.076257 51:0.20524 52:0.233188 53:0.939488 54:0.601372 55:0.196522 57:0.386087 58:0.156581 59:0.342501 60:0.206968 61:0.243478 63:0.035405 64:0.181223 67:0.0869408 68:0.39476 70:0.355167 71:0.241304 76:0.669578 77:0.828227 79:0.258734 83:0.3246 84:0.598949 85:0.334789 89:0.334789 91:0.0350509 92:0.257642 93:0.246725 95:0.216594 96:0.713246 97:0.333333 100:0.742358 102:0.220298 104:0.350801 108:0.241266 113:0.484716 125:0.0965367 131:0.456901 137:0.343523 139:0.36099 144:0.120652 149:0.327511 154:0.19476 155:0.241304 158:0.482533 159:0.297937 163:0.323188 167:0.193043 168:0.482533 172:0.242358 186:0.112077 190:0.201739 195:0.047259 196:0.4869 203:0.251092 207:0.5 209:0.282424 231:0.286957 234:0.4869 243:0.35942 259:0.321689 263:0.212422 270:0.241266 282:0.265284 288:0.26087 293:0.442858 296:0.491266 299:0.198253 315:0.112082 319:0.21913 320:0.368268 324:0.328967 336:0.25655 339:0.311147 341:0.358206 342:0.371179 349:0.248908 355:0.168841 357:0.321689 358:0.246739 359:0.526201 
1 1:0.507311 2:0.444202 3:0.357601 4:0.586445 5:0.404824 6:0.336111 7:0.756516 8:0.242308 9:0.583333 10:0.398333 11:0.2625 12:0.32 13:0.517246 15:0.311203 16:0.308333 17:0.1375 18:0.103704 19:0.115741 21:0.280083 22:0.361667 25:0.378138 26:0.252092 27:0.66369 28:0.396429 29:0.1375 30:0.204184 31:0.148214 32:0.22 34:0.125521 35:0.232292 37:0.159693 38:0.159751 39:0.186667 40:0.311018 42:0.169835 43:0.240586 44:0.860303 45:0.308229 46:0.166252 47:0.369874 49:0.187572 50:0.146186 51:0.196653 52:0.223431 53:0.30006 54:0.144053 55:0.565 56:0.4625 59:0.525262 60:0.446354 63:0.033936 65:0.262552 67:0.25 68:0.189121 74:0.240586 76:0.320781 77:0.892066 81:0.4 83:0.311018 84:0.625163 85:0.641562 86:0.23431 88:0.235356 89:0.320781 90:0.275105 91:0.10079 92:0.740586 94:0.190833 95:0.415063 96:0.683403 98:0.334728 102:0.0527893 104:0.336123 107:0.236402 111:0.309623 112:0.616457 116:0.462343 118:0.185 120:0.616457 121:0.315202 124:0.343096 131:0.570489 132:1 136:0.301255 140:0.163889 144:0.115625 154:0.186611 159:0.171345 163:0.309722 181:0.165278 182:0.186667 185:0.495816 186:0.322222 188:0.627615 190:0.193333 192:0.357043 195:0.0452899 202:0.132143 203:0.240586 206:0.194979 207:0.479079 209:0.116017 212:0.237448 221:0.145238 222:0.313808 231:0.1375 232:0.154114 236:0.0396605 245:0.462343 274:0.345886 282:0.254184 283:0.462343 284:0.464435 293:0.362393 307:0.373222 308:0.193305 310:0.317992 314:0.32636 339:0.178942 341:0.375427 345:0.462343 346:0.316597 350:0.206481 353:0.25523 355:0.485417 358:0.236458 363:0.361227 
1 1:0.576923 2:0.426717 3:0.386466 4:0.554559 5:0.1875 6:0.363363 7:0.653846 8:0.174636 9:0.252252 10:0.107658 11:0.283784 12:0.230631 13:0.50139 14:0.345291 15:0.112107 16:0.333333 17:0.297297 18:0.224224 20:0.556054 21:0.605381 22:0.195495 23:0.207207 24:0.2 25:0.136312 26:0.136312 27:0.287001 28:0.285714 30:0.220814 31:0.160232 32:0.118919 33:0.215385 35:0.502252 36:0.567568 37:0.1727 38:0.172646 39:0.807207 41:0.681081 42:0.152902 43:0.260181 44:0.793984 45:0.166667 46:0.204289 49:0.270376 50:0.157986 51:0.21267 52:0.241629 53:0.16225 54:0.155785 56:0.25 57:0.2 59:0.496703 60:0.428785 61:0.252252 63:0.0366752 67:0.270179 69:0.5 70:0.368024 71:0.25 72:0.224324 77:0.813823 80:0.705882 81:0.21629 82:0.333333 84:0.669407 86:0.253394 87:0.33635 91:0.0363084 92:0.266968 93:0.255656 94:0.206306 96:0.739065 98:0.723982 101:0.271396 102:0.171151 104:0.18175 107:0.255656 112:0.333333 114:0.146075 115:0.33635 116:0.5 123:0.393665 125:0.0999999 126:0.252262 127:0.2 128:0.375566 129:0.502262 131:0.412212 134:0.168168 135:0.5 136:0.325792 139:0.374057 143:0.244344 145:0.355958 148:0.282658 150:0.5 153:0.504525 156:0.378582 159:0.308626 164:0.2 165:1 166:0.381381 167:0.2 168:0.5 172:0.251131 176:0.5 177:0.111111 178:0.340875 181:0.357357 182:0.403604 189:0.374057 194:0.334842 199:0.696833 209:0.125381 214:0.502262 216:0.183183 225:0.504525 233:0.522624 235:0.40362 241:0.283937 245:1 249:0.522624 250:0.5 253:0.274887 278:0.540724 281:0.504525 282:0.274887 287:0.171171 293:0.296792 301:0.223529 307:0.20181 310:0.343891 319:0.227027 320:0.381599 327:0.2 331:0.533937 339:0.515695 341:0.36382 351:0.334842 354:0.360483 355:0.174925 356:0.361991 358:0.255631 
1 1:0.381587 2:0.188059 3:0.25548 4:0.209486 5:0.275445 6:0.160053 7:0.600646 8:0.153846 9:0.111111 10:0.189683 12:0.101587 13:0.537142 14:0.405797 15:0.395257 17:0.392857 18:0.0987654 19:0.220459 20:0.245059 21:0.177866 25:0.24004 26:0.12002 28:0.251701 29:0.52381 32:0.104762 36:0.25 38:0.456522 39:0.355556 41:0.2 42:0.323622 43:0.229084 44:0.800527 45:0.146746 46:0.2975 48:0.305445 49:0.196318 50:0.487382 51:0.187251 55:0.179365 56:0.220238 57:0.352381 58:0.142857 59:0.375262 60:0.283456 61:0.444444 63:0.0323264 64:0.165339 67:0.0793808 68:0.360159 69:0.220238 71:0.440476 77:0.753934 80:0.310757 81:0.190438 83:0.296149 84:0.627589 86:0.223108 90:0.261952 91:0.0960092 101:0.239087 102:0.301713 104:0.160027 105:0.129252 113:0.442231 115:0.296149 118:0.528571 120:0.293493 124:0.326693 125:0.176285 129:0.884462 131:0.470037 135:0.440239 140:0.156085 141:0.498016 148:0.249008 156:0.333333 159:0.054406 170:0.440239 177:0.0978836 181:0.157407 187:0.24502 188:0.298805 189:0.329349 190:0.184127 192:0.339973 195:0.0431332 198:0.241036 200:0.173307 201:0.304233 202:0.377551 209:0.18419 210:0.880478 216:0.322751 222:0.298805 223:0.484064 224:0.333333 231:0.392857 238:0.462151 239:0.586985 243:0.328042 252:1 253:0.242032 263:0.129252 270:0.22012 272:0.442231 278:0.476096 280:0.239044 287:0.150794 290:0.440239 293:0.37655 299:0.180876 300:0.880478 309:0.494024 312:0.648148 318:0.294821 326:0.313413 339:0.113636 341:0.324793 349:0.227092 352:0.476096 355:0.308201 358:0.112599 366:0.687251 
1 1:0.48718 2:0.189557 3:0.257515 4:0.211155 5:0.444223 6:0.242 7:0.435897 8:0.0775385 10:0.3824 12:0.3072 13:0.597496 14:0.511288 15:0.59761 16:0.296 17:0.132 18:0.199111 19:0.222222 20:0.494024 21:0.179283 23:0.184 24:0.3552 25:0.241968 26:0.120984 28:0.253714 29:0.132 31:0.142286 33:0.191165 34:0.241 36:0.504 38:0.306773 41:0.4032 42:0.299008 44:0.77041 46:0.193123 49:0.174245 50:0.210542 52:0.214458 54:0.138267 56:0.444 59:0.504336 60:0.380952 61:0.672 62:0.297189 63:0.16292 64:0.166667 65:0.252008 67:0.320053 69:0.222 71:0.222 72:0.1992 77:0.618317 78:0.211245 80:0.313253 82:0.5917 83:0.298527 84:0.661522 90:0.264056 91:0.032258 95:0.199197 102:0.101372 103:0.240964 105:0.130286 108:0.221888 112:0.29585 115:0.298527 116:0.443775 118:0.1776 120:0.5917 121:0.302544 122:0.459839 125:0.177689 126:0.223896 129:0.445783 130:0.241 131:0.565351 134:0.298667 141:0.753 145:0.31593 147:0.222 151:0.252008 154:0.179116 155:0.222 159:0.109679 160:0.443775 163:0.297333 164:0.1776 166:0.338667 167:0.1776 173:0.1776 175:0.456 176:0.443775 177:0.0986667 181:0.158667 185:0.237952 189:0.663989 194:0.594378 196:0.895582 197:0.1888 199:0.309237 200:0.349398 201:0.92 204:0.230924 209:0.0371314 211:0.88755 216:0.162667 217:0.352075 228:0.227912 229:0.252008 231:0.132 233:0.463855 236:0.0380741 238:0.931727 240:0.481928 242:0.22992 243:0.330667 250:0.443775 255:0.0911647 263:0.0651429 267:0.447791 272:0.445783 288:0.24 291:0.443775 292:0.443775 293:0.467878 296:0.451807 297:0.17751 298:0.32664 300:0.443775 302:0.307898 312:0.163333 317:0.0428333 331:0.236948 333:0.88755 339:0.286355 341:0.234354 342:0.341365 345:0.443775 350:0.396444 360:0.487952 365:0.5917 
1 1:0.605769 2:0.559752 3:0.506952 4:0.346405 5:0.327941 6:0.158793 7:0.786659 8:0.610539 9:0.220472 10:0.0940945 11:0.330709 12:0.302362 13:0.39076 14:0.402614 16:0.291339 17:0.259843 18:0.293963 19:0.328084 20:0.85098 21:0.176471 22:0.512598 23:0.362205 24:0.874016 28:0.249719 29:0.129921 30:0.192885 33:0.376285 34:0.118602 35:0.219488 36:0.496063 37:0.452569 38:0.15098 39:0.176378 41:0.39685 42:0.107031 43:0.227273 44:0.831424 46:0.171629 49:0.266888 51:0.185771 52:0.633202 53:0.283456 54:0.136081 57:0.349606 58:0.141728 59:0.496424 60:0.468721 62:0.29249 63:0.0320728 65:0.248024 66:0.363636 67:0.157516 68:0.178656 69:0.218504 70:0.642951 72:0.196063 73:0.791502 76:0.606061 77:0.840257 78:0.41581 79:0.468379 80:0.3083 82:0.291173 84:0.615889 85:0.30303 91:0.0317521 97:0.603426 99:0.619236 100:0.335968 101:0.237205 102:0.249455 103:0.237154 104:0.158762 106:0.30303 108:0.218379 111:0.29249 114:0.255343 124:0.324111 125:0.174902 126:0.440711 128:0.328063 130:0.711614 131:0.394213 140:0.154856 141:0.247047 143:0.213439 144:0.109252 145:0.310935 146:0.316206 151:0.248024 152:0.438735 156:0.330698 159:0.215917 160:0.873518 162:0.192126 164:0.349606 166:1 167:0.174803 176:0.436759 182:0.176378 186:0.101487 193:0.291173 199:0.304348 202:0.124859 209:0.255843 211:0.436759 225:0.440711 226:0.18498 231:0.389764 232:0.145586 239:0.291173 241:0.248024 244:0.301713 248:0.440711 285:0.881423 287:0.299213 288:0.23622 293:0.287729 301:0.195257 302:0.30303 309:0.245059 312:0.160761 314:0.3083 319:0.39685 321:0.436759 327:0.174803 331:0.233202 333:0.436759 337:0.436759 339:0.45098 340:0.321476 341:0.331876 343:0.230237 348:0.873518 349:0.225296 351:0.29249 355:0.152887 358:0.111713 
1 1:0.299903 3:0.136941 4:0.299435 5:0.354343 6:0.171631 7:0.360489 10:0.101702 13:0.668577 14:0.217514 16:0.47234 19:0.118203 20:0.394068 21:0.286017 23:0.391489 24:0.188936 25:0.128739 26:0.128739 27:0.406687 28:0.269909 34:0.256383 35:0.237234 36:0.53617 38:0.407839 42:0.404641 44:0.60962 46:0.208953 49:0.30017 50:0.298566 54:0.147131 56:0.23617 57:0.188936 59:0.402293 60:0.303874 63:0.103965 67:0.0850989 69:0.23617 72:0.211915 75:0.336182 77:0.57629 78:0.224786 79:0.253205 82:0.314815 84:0.721284 90:0.280983 91:0.20585 93:0.724359 97:0.326211 100:0.363248 102:0.161723 103:0.25641 104:0.171652 105:0.138602 107:0.482906 116:0.472222 119:0.344729 121:0.321937 122:0.489316 125:0.0944916 128:0.709402 130:0.256383 131:0.446844 140:0.334752 144:0.118085 146:0.34188 147:0.118085 153:0.476496 155:0.47234 159:0.11665 164:0.188936 176:0.472222 177:0.104965 179:0.472222 180:0.138602 182:0.190638 183:0.476496 185:0.253205 186:0.109693 187:0.262821 195:0.0925069 197:0.401702 199:0.32906 202:0.134954 208:0.255342 209:0.0789831 216:0.17305 226:0.2 231:0.280851 236:0.0405043 237:0.330484 255:0.0970085 258:0.134954 259:0.314815 261:0.189744 269:0.271368 276:0.118056 284:0.474359 287:0.161702 288:0.12766 291:0.472222 293:0.368079 298:0.347578 310:0.162393 312:0.347518 313:0.320513 317:0.0455674 324:0.321937 327:0.188936 329:0.284188 335:0.957265 336:0.251068 339:0.365466 341:0.284999 342:0.363248 349:0.24359 355:0.165248 356:0.34188 358:0.482979 
1 1:0.0498961 7:0.23562 13:0.765522 20:0.24031 21:0.174419 38:0.29845 42:0.449614 44:0.67103 46:0.23851 49:0.189666 50:0.40966 59:0.183995 60:0.0463271 63:0.1268 67:0.31137 77:0.564593 84:0.762388 91:0.125531 94:0.17821 102:0.147933 105:0.253474 125:0.259302 131:0.193716 134:0.145266 140:0.306096 147:0.107977 148:0.244163 155:0.431907 159:0.373461 162:0.189883 166:0.329442 167:0.172763 173:0.345525 180:0.126737 181:0.154345 186:0.200605 190:0.541634 195:0.042294 198:0.236328 200:0.509766 208:0.233398 209:0.0722481 216:0.474708 218:0.21582 224:0.326848 231:0.128405 236:0.037037 251:0.431641 254:0.219727 256:0.216797 257:0.216797 258:0.370206 259:0.575521 263:0.0633685 264:0.326823 265:0.222656 270:0.21582 280:0.46875 287:0.59144 288:0.233463 289:0.486328 293:0.670788 297:0.172656 299:0.177344 302:0.299479 305:0.184375 311:0.303385 314:0.304687 315:0.10026 317:0.0416667 319:0.392218 320:0.329427 329:0.259766 339:0.167151 341:0.615123 350:0.0964116 353:0.238281 354:0.311198 355:0.151102 356:0.625 358:0.110409 361:0.28776 365:0.28776 
1 1:0.483343 2:0.423133 3:0.2129 4:0.349144 5:0.165267 6:0.160053 7:0.480517 8:0.0769231 9:0.222222 10:0.0948413 11:0.0833333 12:0.406349 13:0.56686 14:0.405797 15:0.197628 16:0.146825 17:0.261905 19:0.110229 20:0.857708 21:0.266799 22:0.344444 23:0.365079 24:0.17619 27:0.126417 28:0.251701 29:0.130952 31:0.141156 32:0.314286 33:0.189641 35:0.66369 36:1 38:0.076087 39:0.177778 40:0.296149 41:1 42:0.107874 43:0.229084 44:0.730613 45:0.293493 46:0.102532 47:0.352191 49:0.39322 50:0.069626 51:0.374502 52:0.212749 55:0.179365 57:0.17619 59:0.437805 60:0.236213 61:0.222222 64:0.165339 67:0.0793808 69:0.220238 71:0.440476 72:0.197619 77:0.815431 79:0.236056 80:0.621514 81:0.190438 82:0.293493 83:0.296149 84:0.696153 85:0.305445 89:0.305445 90:0.261952 91:0.192018 95:0.19761 96:0.325365 97:0.304117 100:0.338645 102:0.201142 107:0.2251 111:0.294821 112:0.293493 114:0.128685 125:0.0881423 127:0.176096 128:0.330677 130:0.239087 131:0.288625 138:0.357238 139:0.329349 141:0.249008 143:0.215139 145:0.313413 146:0.318725 155:0.220238 156:1 158:0.440239 159:0.217624 163:0.294974 164:0.528571 179:0.440239 183:0.444223 186:0.306878 189:0.329349 191:0.452191 195:0.0431332 200:0.173307 207:0.456175 209:0.221028 210:0.440239 219:0.444223 221:0.138322 227:0.484064 229:0.75 231:0.261905 233:0.460159 237:0.308101 241:0.5 248:0.888446 249:0.460159 252:0.333333 258:0.12585 259:0.293493 263:0.129252 272:0.442231 273:0.302789 288:0.119048 291:0.440239 293:0.427997 299:0.180876 300:0.440239 301:0.196813 303:0.294821 304:0.296149 312:0.162037 313:0.298805 315:0.204515 319:0.2 327:0.17619 331:0.23506 334:0.460159 339:0.625 340:0.324037 341:0.42879 347:0.592297 355:0.154101 357:0.293493 358:0.112599 366:0.229084 
1 1:0.461538 2:0.320038 3:0.289849 4:0.396114 5:0.375 6:0.272523 7:0.68109 8:0.261954 9:0.126126 10:0.215315 11:0.0945946 12:0.230631 13:0.486622 15:0.336323 16:0.5 17:0.297297 18:0.112112 19:0.500501 20:0.278027 21:0.403587 24:0.4 25:0.272624 31:0.160232 34:0.135698 35:0.251126 36:0.283784 37:0.1727 38:0.0863228 39:0.201802 41:0.227027 42:0.122321 44:0.730262 46:0.164092 49:0.270376 50:0.0789927 52:0.483258 53:0.16225 55:0.610811 56:0.25 58:0.486749 59:0.28383 60:0.428785 62:0.334842 63:0.0366752 64:0.187783 65:0.283937 67:0.0900597 69:1 73:0.604072 74:0.260181 77:0.666213 78:0.714027 79:0.2681 84:0.621945 91:0.108925 98:0.361991 101:0.271396 102:0.114101 103:0.271493 118:0.2 120:0.333333 125:0.0999999 131:0.268216 133:0.348416 144:0.125 145:0.355958 148:0.282658 150:1 155:0.25 159:0.370351 163:0.334835 164:0.2 169:0.339367 176:1 182:0.201802 183:0.504525 194:0.334842 195:0.048962 199:0.696833 202:0.142857 203:0.780543 206:0.21086 207:0.5181 209:0.208969 211:0.5 212:0.256787 216:0.183183 222:0.339367 226:0.423529 229:0.283937 231:0.148649 232:0.166667 235:0.20181 236:0.0428762 237:0.349925 241:0.283937 242:0.25905 245:0.5 250:0.5 259:0.666667 264:0.189291 275:0.337858 288:0.27027 289:0.563348 293:0.439266 294:0.540724 302:0.346908 309:0.280543 319:0.227027 320:0.381599 322:0.565611 327:0.2 330:1 331:0.266968 335:0.506787 336:0.265837 337:0.5 339:0.386771 341:0.486644 348:1 355:0.6997 358:0.255631 365:0.333333 
0.5872090792003838 1:0.705882 2:0.602265 3:0.363636 4:0.745429 5:0.411656 6:0.256356 7:0.871795 8:0.410691 9:0.355932 10:0.202542 11:0.0889831 12:0.759322 13:0.395344 14:0.649789 15:0.316456 16:0.783898 17:0.279661 18:0.527307 19:0.706215 20:0.523207 21:0.0949367 22:0.367797 23:0.194915 24:0.564407 25:0.128191 29:0.139831 31:0.150726 32:0.447458 33:0.405106 34:0.127648 36:0.533898 37:0.162411 38:0.162447 40:0.316312 41:0.427119 42:0.143908 44:0.764628 45:0.313475 46:0.151088 47:0.188085 49:0.324553 50:0.148653 51:1 52:0.908936 55:0.191525 58:0.152584 59:0.934723 60:0.403456 62:0.629787 63:0.0345087 64:0.353191 65:0.534043 66:0.195745 69:0.235169 71:0.470339 72:0.422034 73:0.852128 75:0.334752 77:0.794577 78:0.895319 80:0.331915 81:0.406809 84:0.597614 85:0.326241 86:0.476596 90:0.839362 91:0.170818 96:0.695035 99:1 102:0.107361 103:0.255319 110:0.31773 114:0.274818 115:0.632624 117:0.519149 124:0.348936 125:0.188186 131:0.270636 136:0.306383 138:0.19078 141:0.797669 142:0.316312 144:0.117585 149:0.319149 151:0.534043 154:0.189787 155:0.235169 156:0.712057 159:0.116158 160:0.470213 161:0.343262 164:0.188136 166:0.358757 169:0.319149 170:0.470213 175:0.241525 176:0.470213 181:0.336158 183:0.474468 186:0.109228 188:0.319149 189:0.351773 195:0.092115 201:0.649718 209:0.196625 212:0.241489 215:0.482979 216:0.172316 226:0.199149 227:0.517021 229:0.267021 231:0.139831 233:0.491489 236:0.0403327 241:0.267021 243:0.350282 244:0.324823 249:0.491489 253:0.258511 271:0.482979 272:0.47234 273:0.323404 280:0.255319 287:0.322034 293:0.367401 300:0.470213 301:0.210213 307:0.189787 310:0.323404 327:0.188136 333:0.940426 336:0.5 339:0.485232 341:0.42023 355:0.329096 358:0.240466 363:0.367376 364:0.176596 
1 1:0.328125 2:0.0932921 3:0.253476 4:0.138562 5:0.163971 6:0.0793963 7:0.357572 8:0.0763174 10:0.188189 13:0.672416 14:0.402614 15:0.294118 16:0.145669 18:0.195976 20:0.243137 21:0.352941 22:0.341732 23:0.181102 24:0.349606 26:0.119071 28:0.249719 29:0.389764 33:0.188142 34:0.118602 35:0.438976 36:0.496063 38:0.15098 39:0.352756 41:0.198425 42:0.294336 44:0.770435 46:0.29473 49:0.0715239 50:0.20724 54:0.136081 57:0.174803 59:0.310265 60:0.0937442 61:0.440945 63:0.160364 65:0.248024 67:0.236275 71:0.218504 72:0.196063 76:0.30303 77:0.655853 79:0.23419 80:0.3083 83:0.293808 84:0.710755 85:0.30303 86:0.221344 88:0.222332 91:0.0317521 94:0.180315 100:0.335968 102:0.349237 105:0.256468 108:0.218379 109:0.438735 111:0.29249 112:0.291173 113:0.87747 114:0.127672 115:0.293808 125:0.174902 128:0.328063 129:0.438735 131:0.50221 141:0.494094 142:0.293808 143:0.213439 144:0.218504 146:0.316206 147:0.218504 154:0.176285 155:0.218504 156:0.330698 159:0.269896 162:0.192126 163:0.292651 167:0.349606 173:0.174803 174:0.456522 175:0.224409 177:0.0971129 178:0.29776 180:0.128234 181:0.156168 183:0.440711 190:0.182677 197:0.185827 200:0.171937 201:0.603675 204:0.227273 205:0.440711 208:0.236166 209:0.255843 211:0.436759 212:0.224308 219:0.440711 220:0.218379 226:0.18498 231:0.389764 235:0.176285 236:0.0374745 237:0.305665 238:0.458498 242:0.226285 247:0.230237 248:0.440711 249:0.456522 255:0.0897233 258:0.249719 261:0.175494 263:0.192351 269:0.250988 272:0.438735 273:0.300395 286:0.233202 287:0.149606 293:0.525644 295:0.87747 297:0.349407 299:0.179447 300:0.436759 307:0.176285 313:0.296443 319:0.198425 320:0.333333 324:0.29776 331:0.233202 339:0.22549 341:0.36688 345:0.436759 349:0.225296 360:0.480237 364:0.164032 366:0.227273 
